{"learner":{"attributes":{"scikit_learn":"{\"_estimator_type\": \"classifier\"}"},"feature_names":["Time","V1","V2","V3","V4","V5","V6","V7","V8","V9","V10","V11","V12","V13","V14","V15","V16","V17","V18","V19","V20","V21","V22","V23","V24","V25","V26","V27","V28","Amount","Amount_log1p"],"feature_types":["float","float","float","float","float","float","float","float","float","float","float","float","float","float","float","float","float","float","float","float","float","float","float","float","float","float","float","float","float","float","float"],"gradient_booster":{"model":{"gbtree_model_param":{"num_parallel_tree":"1","num_trees":"800"},"iteration_indptr":[0,1,2,3,4,5,6,7,8,9,10,11,12,13,14,15,16,17,18,19,20,21,22,23,24,25,26,27,28,29,30,31,32,33,34,35,36,37,38,39,40,41,42,43,44,45,46,47,48,49,50,51,52,53,54,55,56,57,58,59,60,61,62,63,64,65,66,67,68,69,70,71,72,73,74,75,76,77,78,79,80,81,82,83,84,85,86,87,88,89,90,91,92,93,94,95,96,97,98,99,100,101,102,103,104,105,106,107,108,109,110,111,112,113,114,115,116,117,118,119,120,121,122,123,124,125,126,127,128,129,130,131,132,133,134,135,136,137,138,139,140,141,142,143,144,145,146,147,148,149,150,151,152,153,154,155,156,157,158,159,160,161,162,163,164,165,166,167,168,169,170,171,172,173,174,175,176,177,178,179,180,181,182,183,184,185,186,187,188,189,190,191,192,193,194,195,196,197,198,199,200,201,202,203,204,205,206,207,208,209,210,211,212,213,214,215,216,217,218,219,220,221,222,223,224,225,226,227,228,229,230,231,232,233,234,235,236,237,238,239,240,241,242,243,244,245,246,247,248,249,250,251,252,253,254,255,256,257,258,259,260,261,262,263,264,265,266,267,268,269,270,271,272,273,274,275,276,277,278,279,280,281,282,283,284,285,286,287,288,289,290,291,292,293,294,295,296,297,298,299,300,301,302,303,304,305,306,307,308,309,310,311,312,313,314,315,316,317,318,319,320,321,322,323,324,325,326,327,328,329,330,331,332,333,334,335,336,337,338,339,340,341,342,343,344,345,346,347,348,349,350,351,352,353,354,355,356,357,358,359,360,361,362,363,364,365,366,367,368,369,370,371,372,373,374,375,376,377,378,379,380,381,382,383,384,385,386,387,388,389,390,391,392,393,394,395,396,397,398,399,400,401,402,403,404,405,406,407,408,409,410,411,412,413,414,415,416,417,418,419,420,421,422,423,424,425,426,427,428,429,430,431,432,433,434,435,436,437,438,439,440,441,442,443,444,445,446,447,448,449,450,451,452,453,454,455,456,457,458,459,460,461,462,463,464,465,466,467,468,469,470,471,472,473,474,475,476,477,478,479,480,481,482,483,484,485,486,487,488,489,490,491,492,493,494,495,496,497,498,499,500,501,502,503,504,505,506,507,508,509,510,511,512,513,514,515,516,517,518,519,520,521,522,523,524,525,526,527,528,529,530,531,532,533,534,535,536,537,538,539,540,541,542,543,544,545,546,547,548,549,550,551,552,553,554,555,556,557,558,559,560,561,562,563,564,565,566,567,568,569,570,571,572,573,574,575,576,577,578,579,580,581,582,583,584,585,586,587,588,589,590,591,592,593,594,595,596,597,598,599,600,601,602,603,604,605,606,607,608,609,610,611,612,613,614,615,616,617,618,619,620,621,622,623,624,625,626,627,628,629,630,631,632,633,634,635,636,637,638,639,640,641,642,643,644,645,646,647,648,649,650,651,652,653,654,655,656,657,658,659,660,661,662,663,664,665,666,667,668,669,670,671,672,673,674,675,676,677,678,679,680,681,682,683,684,685,686,687,688,689,690,691,692,693,694,695,696,697,698,699,700,701,702,703,704,705,706,707,708,709,710,711,712,713,714,715,716,717,718,719,720,721,722,723,724,725,726,727,728,729,730,731,732,733,734,735,736,737,738,739,740,741,742,743,744,745,746,747,748,749,750,751,752,753,754,755,756,757,758,759,760,761,762,763,764,765,766,767,768,769,770,771,772,773,774,775,776,777,778,779,780,781,782,783,784,785,786,787,788,789,790,791,792,793,794,795,796,797,798,799,800],"tree_info":[0,0,0,0,0,0,0,0,0,0,0,0,0,0,0,0,0,0,0,0,0,0,0,0,0,0,0,0,0,0,0,0,0,0,0,0,0,0,0,0,0,0,0,0,0,0,0,0,0,0,0,0,0,0,0,0,0,0,0,0,0,0,0,0,0,0,0,0,0,0,0,0,0,0,0,0,0,0,0,0,0,0,0,0,0,0,0,0,0,0,0,0,0,0,0,0,0,0,0,0,0,0,0,0,0,0,0,0,0,0,0,0,0,0,0,0,0,0,0,0,0,0,0,0,0,0,0,0,0,0,0,0,0,0,0,0,0,0,0,0,0,0,0,0,0,0,0,0,0,0,0,0,0,0,0,0,0,0,0,0,0,0,0,0,0,0,0,0,0,0,0,0,0,0,0,0,0,0,0,0,0,0,0,0,0,0,0,0,0,0,0,0,0,0,0,0,0,0,0,0,0,0,0,0,0,0,0,0,0,0,0,0,0,0,0,0,0,0,0,0,0,0,0,0,0,0,0,0,0,0,0,0,0,0,0,0,0,0,0,0,0,0,0,0,0,0,0,0,0,0,0,0,0,0,0,0,0,0,0,0,0,0,0,0,0,0,0,0,0,0,0,0,0,0,0,0,0,0,0,0,0,0,0,0,0,0,0,0,0,0,0,0,0,0,0,0,0,0,0,0,0,0,0,0,0,0,0,0,0,0,0,0,0,0,0,0,0,0,0,0,0,0,0,0,0,0,0,0,0,0,0,0,0,0,0,0,0,0,0,0,0,0,0,0,0,0,0,0,0,0,0,0,0,0,0,0,0,0,0,0,0,0,0,0,0,0,0,0,0,0,0,0,0,0,0,0,0,0,0,0,0,0,0,0,0,0,0,0,0,0,0,0,0,0,0,0,0,0,0,0,0,0,0,0,0,0,0,0,0,0,0,0,0,0,0,0,0,0,0,0,0,0,0,0,0,0,0,0,0,0,0,0,0,0,0,0,0,0,0,0,0,0,0,0,0,0,0,0,0,0,0,0,0,0,0,0,0,0,0,0,0,0,0,0,0,0,0,0,0,0,0,0,0,0,0,0,0,0,0,0,0,0,0,0,0,0,0,0,0,0,0,0,0,0,0,0,0,0,0,0,0,0,0,0,0,0,0,0,0,0,0,0,0,0,0,0,0,0,0,0,0,0,0,0,0,0,0,0,0,0,0,0,0,0,0,0,0,0,0,0,0,0,0,0,0,0,0,0,0,0,0,0,0,0,0,0,0,0,0,0,0,0,0,0,0,0,0,0,0,0,0,0,0,0,0,0,0,0,0,0,0,0,0,0,0,0,0,0,0,0,0,0,0,0,0,0,0,0,0,0,0,0,0,0,0,0,0,0,0,0,0,0,0,0,0,0,0,0,0,0,0,0,0,0,0,0,0,0,0,0,0,0,0,0,0,0,0,0,0,0,0,0,0,0,0,0,0,0,0,0,0,0,0,0,0,0,0,0,0,0,0,0,0,0,0,0,0,0,0,0,0,0,0,0,0,0,0,0,0,0,0,0,0,0,0,0,0,0,0,0,0,0,0,0,0,0,0,0,0,0,0,0,0,0,0,0,0,0,0,0,0,0,0,0,0,0,0,0,0,0,0,0,0,0,0,0,0,0,0,0,0,0,0,0,0,0,0,0,0,0,0,0,0,0,0,0,0,0,0,0,0,0,0,0,0,0,0,0,0,0,0,0,0,0,0,0,0,0,0,0,0,0,0,0,0,0,0,0,0,0,0,0,0,0,0,0,0,0,0,0,0,0,0,0,0,0,0,0,0,0],"trees":[{"base_weights":[-1.034269E-2,1.9007906E0,-1.5208416E0,1.9944938E0,7.6523787E-1,1.7766355E0,-1.5763286E0,1.9954013E0,-8.9189194E-2,-9.975787E-2,1.2056308E0,1.9769899E0,-9.764706E-2,-1.6651132E0,7.127736E-2,-8.857143E-2,1.9962542E0,1.5021027E0,-9.954546E-2,-7.777778E-2,9.974318E-2,-8.8856053E-1,-1.7615439E0,-1.4619569E0,1.0357202E0,-8.095238E-2,1.996722E0,1.6613624E0,-9.903847E-2,-1.3631967E0,9.3630636E-1,-1.838648E0,-6.789843E-1,1.4959483E0,-9.98779E-2,1.5354207E0,-5.7405365E-1,9.984299E-2,-5.555556E-2,-9.846154E-2,8.8391416E-2,-2.7813846E-2,-9.995608E-2,7.24984E-2,-9.9370085E-2,-3.9476167E-2,-9.374001E-2,8.916838E-3,-9.99076E-2,-9.459459E-2,9.809589E-2,8.845826E-2,-9.864407E-2,-9.955507E-2,8.440206E-2],"categories":[],"categories_nodes":[],"categories_segments":[],"categories_sizes":[],"default_left":[0,0,0,0,0,0,0,0,0,0,0,0,0,0,0,0,0,0,0,0,0,0,0,0,0,0,0,0,0,0,0,0,0,0,0,0,0,0,0,0,0,0,0,0,0,0,0,0,0,0,0,0,0,0,0],"id":0,"left_children":[1,3,5,7,9,11,13,15,-1,-1,17,19,-1,21,23,-1,25,27,-1,-1,-1,29,31,33,35,-1,37,39,-1,41,43,45,47,49,-1,51,53,-1,-1,-1,-1,-1,-1,-1,-1,-1,-1,-1,-1,-1,-1,-1,-1,-1,-1],"loss_changes":[2.5712672E5,4.1824062E3,9.10543E3,1.2810938E2,3.6481143E3,6.1940894E2,7.157297E3,1.201875E2,0E0,0E0,2.4546104E3,5.2495117E1,0E0,3.4749531E3,3.702288E3,0E0,6.4640625E1,1.3167529E3,0E0,0E0,0E0,4.4448203E3,3.4457422E3,1.5346392E3,1.2371696E3,0E0,1.7734375E1,8.789663E2,0E0,2.088253E3,1.5940582E3,1.4606484E3,3.1074268E3,2.3860281E2,0E0,9.6549023E2,1.1727076E3,0E0,0E0,0E0,0E0,0E0,0E0,0E0,0E0,0E0,0E0,0E0,0E0,0E0,0E0,0E0,0E0,0E0,0E0],"parents":[2147483647,0,0,1,1,2,2,3,3,4,4,5,5,6,6,7,7,10,10,11,11,13,13,14,14,16,16,17,17,21,21,22,22,23,23,24,24,26,26,27,27,29,29,30,30,31,31,32,32,33,33,35,35,36,36],"right_children":[2,4,6,8,10,12,14,16,-1,-1,18,20,-1,22,24,-1,26,28,-1,-1,-1,30,32,34,36,-1,38,40,-1,42,44,46,48,50,-1,52,54,-1,-1,-1,-1,-1,-1,-1,-1,-1,-1,-1,-1,-1,-1,-1,-1,-1,-1],"split_conditions":[-1.8787968E0,-1.9062351E0,-1.6304436E0,4.151757E0,6.652721E-1,-8.4349626E-1,1.4089365E0,3.373822E-3,-8.9189194E-2,-9.975787E-2,-3.6537234E-2,5.089434E-2,-9.764706E-2,-8.242236E-1,2.965341E-1,-8.857143E-2,2.8923237E-1,7.41273E-1,-9.954546E-2,-7.777778E-2,9.974318E-2,1.1426181E0,1.2678065E0,-9.9106485E-1,-1.6414738E-1,-8.095238E-2,-1.771138E-1,-1.5882177E-2,-9.903847E-2,-2.5621864E-1,-3.4905517E-1,-1.6602213E0,-3.8093157E-2,2.2652838E0,-9.98779E-2,-2.832859E-1,6.43781E-1,9.984299E-2,-5.555556E-2,-9.846154E-2,8.8391416E-2,-2.7813846E-2,-9.995608E-2,7.24984E-2,-9.9370085E-2,-3.9476167E-2,-9.374001E-2,8.916838E-3,-9.99076E-2,-9.459459E-2,9.809589E-2,8.845826E-2,-9.864407E-2,-9.955507E-2,8.440206E-2],"split_indices":[14,12,17,9,18,12,17,30,0,0,23,23,0,14,30,0,11,15,0,0,0,15,7,21,6,0,3,27,0,13,0,19,2,19,0,12,24,0,0,0,0,0,0,0,0,0,0,0,0,0,0,0,0,0,0],"split_type":[0,0,0,0,0,0,0,0,0,0,0,0,0,0,0,0,0,0,0,0,0,0,0,0,0,0,0,0,0,0,0,0,0,0,0,0,0,0,0,0,0,0,0,0,0,0,0,0,0,0,0,0,0,0,0],"sum_hessian":[8.906889E4,3.931985E4,4.9749035E4,3.6321895E4,2.9979583E3,8.227656E2,4.892627E4,3.6313645E4,8.25E0,4.12E2,2.5859583E3,7.812656E2,4.15E1,4.642458E4,2.5016926E3,7.75E0,3.6305895E4,2.3669583E3,2.19E2,3.5E0,7.777656E2,5.129237E3,4.129534E4,9.6579425E2,1.5358984E3,4.25E0,3.6301645E4,2.2639583E3,1.03E2,4.0707214E3,1.0585156E3,3.854903E4,2.7463098E3,1.4779427E2,8.18E2,1.1721041E3,3.6379425E2,3.6300395E4,1.25E0,6.4E1,2.1999583E3,1.7949713E3,2.27575E3,9.007656E2,1.5775E2,1.2848828E3,3.726415E4,1.6650598E3,1.08125E3,1.75E1,1.3029427E2,1.0993541E3,7.275E1,2.2375E2,1.4004427E2],"tree_param":{"num_deleted":"0","num_feature":"31","num_nodes":"55","size_leaf_vector":"1"}},{"base_weights":[-7.904613E-3,1.8140429E0,-1.4646492E0,-9.54472E-2,1.8385485E0,-1.653015E0,-2.540668E-1,1.8534356E0,-9.700477E-2,-1.6936996E0,-1.5579188E-1,8.377856E-1,-1.3130083E0,1.9014375E0,1.2401338E0,-1.2724582E0,-1.8051378E0,-9.599666E-2,1.1440974E0,1.5338323E0,-5.310517E-1,-7.9617053E-1,-9.600876E-2,-8.479703E-2,1.9022526E0,1.3310415E-1,1.8190817E0,-1.4349473E-1,-1.6090713E0,-1.8786721E0,-6.7094815E-1,1.573561E0,-9.543914E-2,1.651793E0,-9.541862E-2,1.4224387E0,-9.567319E-2,-9.56163E-2,-4.4075128E-2,9.512841E-2,-7.1764514E-2,-5.2987304E-2,9.065529E-2,-9.328317E-2,9.444585E-2,-9.700817E-2,2.267955E-2,-8.399491E-2,4.401971E-2,-9.472321E-2,-1.934672E-2,6.2176522E-2,-6.369289E-2,-9.3193404E-2,9.053776E-2,-9.3417935E-2,8.608972E-2,8.89849E-2,-9.421089E-2,-9.558568E-2,2.9663969E-2],"categories":[],"categories_nodes":[],"categories_segments":[],"categories_sizes":[],"default_left":[0,0,0,0,0,0,0,0,0,0,0,0,0,0,0,0,0,0,0,0,0,0,0,0,0,0,0,0,0,0,0,0,0,0,0,0,0,0,0,0,0,0,0,0,0,0,0,0,0,0,0,0,0,0,0,0,0,0,0,0,0],"id":1,"left_children":[1,3,5,-1,7,9,11,13,-1,15,17,19,21,23,25,27,29,-1,31,33,35,37,-1,-1,39,41,43,45,47,49,51,53,-1,55,-1,57,-1,-1,59,-1,-1,-1,-1,-1,-1,-1,-1,-1,-1,-1,-1,-1,-1,-1,-1,-1,-1,-1,-1,-1,-1],"loss_changes":[2.3580677E5,3.6049531E3,1.1257766E4,0E0,2.2096875E3,2.6021484E3,7.6886113E3,1.1476875E3,0E0,1.9501719E3,2.596523E3,3.1203809E3,1.057792E3,1.0944531E2,1.8189165E3,3.3077764E3,2.74175E3,0E0,8.578318E2,8.8457666E2,2.985272E3,1.5320941E3,0E0,0E0,4.0890625E1,1.957322E3,4.8308398E2,2.1468372E3,1.1837715E3,7.268594E2,2.3147905E3,4.6985706E2,0E0,5.205342E2,0E0,5.44705E2,0E0,0E0,1.3003536E3,0E0,0E0,0E0,0E0,0E0,0E0,0E0,0E0,0E0,0E0,0E0,0E0,0E0,0E0,0E0,0E0,0E0,0E0,0E0,0E0,0E0,0E0],"parents":[2147483647,0,0,1,1,2,2,4,4,5,5,6,6,7,7,9,9,10,10,11,11,12,12,13,13,14,14,15,15,16,16,18,18,19,19,20,20,21,21,24,24,25,25,26,26,27,27,28,28,29,29,30,30,31,31,33,33,35,35,38,38],"right_children":[2,4,6,-1,8,10,12,14,-1,16,18,20,22,24,26,28,30,-1,32,34,36,38,-1,-1,40,42,44,46,48,50,52,54,-1,56,-1,58,-1,-1,60,-1,-1,-1,-1,-1,-1,-1,-1,-1,-1,-1,-1,-1,-1,-1,-1,-1,-1,-1,-1,-1,-1],"split_conditions":[-1.8787968E0,-5.824499E-1,1.6580755E0,-9.54472E-2,3.177769E-1,6.2086654E-1,-6.6592616E-1,-1.9062351E0,-9.700477E-2,-4.6793887E-1,3.3375227E-1,9.021667E-2,-6.634126E-1,3.373822E-3,1.8916794E0,-7.9345685E-1,1.2678065E0,-9.599666E-2,-4.4466236E-1,1.5964258E0,-3.5823622E-1,2.8527126E-1,-9.600876E-2,-8.479703E-2,4.151757E0,7.2961336E-1,3.689932E-1,-2.7136803E-1,1.1985197E0,2.2652838E0,-1.5058472E0,-3.032914E0,-9.543914E-2,2.0200974E-1,-9.541862E-2,-7.6868236E-2,-9.567319E-2,-9.56163E-2,-1.2851036E0,9.512841E-2,-7.1764514E-2,-5.2987304E-2,9.065529E-2,-9.328317E-2,9.444585E-2,-9.700817E-2,2.267955E-2,-8.399491E-2,4.401971E-2,-9.472321E-2,-1.934672E-2,6.2176522E-2,-6.369289E-2,-9.3193404E-2,9.053776E-2,-9.3417935E-2,8.608972E-2,8.89849E-2,-9.421089E-2,-9.558568E-2,2.9663969E-2],"split_indices":[14,4,4,0,12,27,12,12,0,14,4,3,9,30,4,13,7,0,6,14,20,30,0,0,9,29,1,4,26,19,13,1,0,30,0,26,0,0,9,0,0,0,0,0,0,0,0,0,0,0,0,0,0,0,0,0,0,0,0,0,0],"split_type":[0,0,0,0,0,0,0,0,0,0,0,0,0,0,0,0,0,0,0,0,0,0,0,0,0,0,0,0,0,0,0,0,0,0,0,0,0,0,0,0,0,0,0,0,0,0,0,0,0,0,0,0,0,0,0,0,0,0,0,0,0],"sum_hessian":[8.884381E4,3.9473785E4,4.937003E4,2.576236E2,3.921616E4,4.272213E4,6.6479004E3,3.9062773E4,1.533901E2,4.1591812E4,1.1303185E3,3.273191E3,3.3747095E3,3.6225383E4,2.8373887E3,8.703735E3,3.2888074E4,4.793258E2,6.5099274E2,2.169759E3,1.1034318E3,1.8242051E3,1.5505044E3,7.734806E0,3.621765E4,9.7475354E2,1.8626353E3,1.9993977E3,6.704338E3,3.0885012E4,2.0030642E3,5.711332E2,7.985953E1,2.0983704E3,7.1388756E1,4.572548E2,6.46177E2,7.33743E2,1.0904622E3,3.6214652E4,2.994042E0,5.702375E2,4.0451605E2,3.41667E1,1.8284686E3,4.981584E2,1.5012393E3,6.519188E3,1.8514984E2,3.056121E4,3.2379956E2,4.794756E2,1.5235886E3,3.6423542E1,5.3470966E2,4.0413464E1,2.0579568E3,4.130858E2,4.4169E1,2.7694153E2,8.1352057E2],"tree_param":{"num_deleted":"0","num_feature":"31","num_nodes":"61","size_leaf_vector":"1"}},{"base_weights":[-8.234108E-3,1.73363E0,-1.3787948E0,-9.12829E-2,1.7572461E0,-1.5675704E0,-1.8565677E-1,1.771882E0,-9.253245E-2,-1.1384181E0,-1.6970924E0,7.0263517E-1,-1.2095793E0,1.7806569E0,-9.326383E-2,-9.611938E-2,-1.4407922E0,-1.7812052E0,-5.324206E-1,-8.2753164E-1,1.2489861E0,-1.4930812E0,1.1674448E0,1.8200533E0,1.2701414E0,6.58542E-1,-9.525222E-2,1.5417117E-2,-1.5553577E0,6.8060654E-1,-1.7964232E0,-9.431312E-2,5.404756E-1,1.3344094E0,-9.224605E-2,1.3847474E0,-9.277951E-2,-9.2223264E-2,-1.9138204E-1,-9.09879E-2,1.8313332E0,-8.046045E-2,9.103841E-2,-7.564364E-4,8.894566E-2,-9.4955266E-2,5.8691617E-2,-9.1974765E-2,8.830825E-2,-8.111156E-2,6.316274E-2,8.901333E-2,-9.017202E-2,-9.059137E-2,-1.795817E-2,5.6010794E-2,-9.237212E-2,8.8096164E-2,-8.943593E-2,-9.304433E-2,7.468378E-2,6.3105665E-2,-9.262888E-2,9.916829E-2,-8.4108874E-2],"categories":[],"categories_nodes":[],"categories_segments":[],"categories_sizes":[],"default_left":[0,0,0,0,0,0,0,0,0,0,0,0,0,0,0,0,0,0,0,0,0,0,0,0,0,0,0,0,0,0,0,0,0,0,0,0,0,0,0,0,0,0,0,0,0,0,0,0,0,0,0,0,0,0,0,0,0,0,0,0,0,0,0,0,0],"id":2,"left_children":[1,3,5,-1,7,9,11,13,-1,15,17,19,21,23,-1,25,27,29,31,33,35,37,39,41,43,45,-1,47,49,51,53,-1,55,57,-1,59,-1,-1,61,-1,63,-1,-1,-1,-1,-1,-1,-1,-1,-1,-1,-1,-1,-1,-1,-1,-1,-1,-1,-1,-1,-1,-1,-1,-1],"loss_changes":[2.1053645E5,3.2674844E3,1.111618E4,0E0,2.0404297E3,2.3666797E3,6.1341055E3,1.229625E3,0E0,3.1144023E3,3.2055312E3,3.020188E3,2.1129355E3,7.686406E2,0E0,3.0363135E3,1.2779502E3,1.1448594E3,3.2054055E3,2.0937634E3,1.1243843E3,1.2801035E3,6.664889E2,9.015625E1,1.7978955E3,2.0707761E3,0E0,1.8207913E3,1.3405801E3,5.1748425E2,6.710547E2,0E0,1.7069398E3,4.1016144E2,0E0,9.0454297E2,0E0,0E0,1.441825E3,0E0,1.4974506E2,0E0,0E0,0E0,0E0,0E0,0E0,0E0,0E0,0E0,0E0,0E0,0E0,0E0,0E0,0E0,0E0,0E0,0E0,0E0,0E0,0E0,0E0,0E0,0E0],"parents":[2147483647,0,0,1,1,2,2,4,4,5,5,6,6,7,7,9,9,10,10,11,11,12,12,13,13,15,15,16,16,17,17,18,18,19,19,20,20,21,21,22,22,23,23,24,24,25,25,27,27,28,28,29,29,30,30,32,32,33,33,35,35,38,38,40,40],"right_children":[2,4,6,-1,8,10,12,14,-1,16,18,20,22,24,-1,26,28,30,32,34,36,38,40,42,44,46,-1,48,50,52,54,-1,56,58,-1,60,-1,-1,62,-1,64,-1,-1,-1,-1,-1,-1,-1,-1,-1,-1,-1,-1,-1,-1,-1,-1,-1,-1,-1,-1,-1,-1,-1,-1],"split_conditions":[-1.8787968E0,-5.824499E-1,1.6580755E0,-9.12829E-2,3.177769E-1,-4.2765895E-1,-4.5306566E-1,1.1131743E0,-9.253245E-2,-7.9345685E-1,1.2678065E0,2.8527126E-1,1.1700373E0,-1.9062351E0,-9.326383E-2,-8.8198744E-2,-1.6319689E0,-2.2402952E0,1.5804727E-1,-7.4418086E-1,8.892543E-1,1.0271692E0,7.0640606E-1,3.373822E-3,1.8916794E0,-5.888542E-1,-9.525222E-2,-5.012236E-1,2.2285898E0,-1.4205508E0,2.2652838E0,-9.431312E-2,-3.8093157E-2,-3.6679828E-1,-9.224605E-2,-1.2770973E0,-9.277951E-2,-9.2223264E-2,1.1234398E0,-9.09879E-2,1.0445158E0,-8.046045E-2,9.103841E-2,-7.564364E-4,8.894566E-2,-9.4955266E-2,5.8691617E-2,-9.1974765E-2,8.830825E-2,-8.111156E-2,6.316274E-2,8.901333E-2,-9.017202E-2,-9.059137E-2,-1.795817E-2,5.6010794E-2,-9.237212E-2,8.8096164E-2,-8.943593E-2,-9.304433E-2,7.468378E-2,6.3105665E-2,-9.262888E-2,9.916829E-2,-8.4108874E-2],"split_indices":[14,4,4,0,12,14,12,10,0,13,7,30,22,12,0,23,16,23,15,18,9,11,20,30,4,15,0,14,11,12,19,0,2,20,0,11,0,0,11,0,2,0,0,0,0,0,0,0,0,0,0,0,0,0,0,0,0,0,0,0,0,0,0,0,0],"split_type":[0,0,0,0,0,0,0,0,0,0,0,0,0,0,0,0,0,0,0,0,0,0,0,0,0,0,0,0,0,0,0,0,0,0,0,0,0,0,0,0,0,0,0,0,0,0,0,0,0,0,0,0,0,0,0,0,0,0,0,0,0,0,0,0,0],"sum_hessian":[8.818707E4,3.8833188E4,4.9353887E4,2.5546031E2,3.8577727E4,4.2611652E4,6.7422334E3,3.842237E4,1.5535736E2,9.881279E3,3.2730373E4,3.610393E3,3.13184E3,3.8330406E4,9.196384E1,2.2222812E3,7.658998E3,3.0525305E4,2.2050696E3,9.497923E2,2.6606008E3,2.798448E3,3.3339215E2,3.558199E4,2.7484163E3,1.5685411E3,6.537402E2,5.5867706E2,7.1003213E3,1.8726784E2,3.0338037E4,9.7455817E2,1.2305114E3,3.0383493E2,6.459574E2,2.5496597E3,1.10941086E2,2.2032737E3,5.951744E2,6.030507E1,2.7308707E2,6.947663E0,3.5575043E4,7.7969763E2,1.9687185E3,2.6257294E2,1.3059681E3,2.7124408E2,2.87433E2,6.93618E3,1.641411E2,1.3000111E2,5.7266724E1,3.001607E4,3.2196582E2,9.905547E2,2.3995665E2,2.6763513E2,3.6199787E1,8.2269455E1,2.4673901E3,3.1755963E2,2.7761472E2,2.6217792E2,1.0909166E1],"tree_param":{"num_deleted":"0","num_feature":"31","num_nodes":"65","size_leaf_vector":"1"}},{"base_weights":[8.948967E-3,1.6677823E0,-1.3311343E0,1.7473181E0,5.74553E-1,-1.513648E0,-1.8338913E-1,-8.2600996E-2,1.7482541E0,-6.955447E-1,1.6344229E0,-1.0887635E0,-1.6428789E0,-1.2785945E0,6.168752E-1,1.7488507E0,-8.223891E-2,1.684354E0,-1.3377831E0,1.6911235E0,-9.885038E-2,3.076065E-1,-1.2755028E0,-1.7103053E0,-6.529586E-1,6.950705E-1,-1.5869076E0,1.4190496E0,-5.6722116E-1,-7.723102E-2,1.7494665E0,8.72192E-2,-7.237501E-2,-9.1338664E-2,1.1409202E0,1.7252426E0,-9.026064E-2,-8.9413665E-2,1.1828009E0,-6.799863E-1,-1.6036046E0,-1.7249115E0,5.5446255E-1,-9.032401E-2,3.6416095E-1,-8.987524E-2,1.5311669E0,1.488854E0,-8.859587E-2,1.5533774E0,-8.892783E-2,-1.3394114E0,8.377355E-1,8.7486446E-2,-6.596953E-2,-9.085157E-2,9.112594E-2,8.7375484E-2,-7.8832E-2,-8.9520425E-2,7.513993E-2,-8.977619E-2,1.2965257E-2,-8.92829E-2,-1.2016504E-2,-8.699438E-2,-1.6988834E-2,-8.676508E-2,8.55677E-2,4.7494948E-2,-8.858537E-2,9.064206E-2,-8.735716E-2,8.79088E-2,-8.18816E-2,8.119569E-2,-9.371734E-2,-9.01026E-2,7.6111846E-2,-8.8493474E-2,8.6129114E-2],"categories":[],"categories_nodes":[],"categories_segments":[],"categories_sizes":[],"default_left":[0,0,0,0,0,0,0,0,0,0,0,0,0,0,0,0,0,0,0,0,0,0,0,0,0,0,0,0,0,0,0,0,0,0,0,0,0,0,0,0,0,0,0,0,0,0,0,0,0,0,0,0,0,0,0,0,0,0,0,0,0,0,0,0,0,0,0,0,0,0,0,0,0,0,0,0,0,0,0,0,0],"id":3,"left_children":[1,3,5,7,9,11,13,-1,15,17,19,21,23,25,27,29,-1,31,33,35,-1,37,39,41,43,45,47,49,51,-1,53,-1,-1,-1,55,57,-1,-1,59,61,63,65,67,-1,69,-1,71,73,-1,75,-1,77,79,-1,-1,-1,-1,-1,-1,-1,-1,-1,-1,-1,-1,-1,-1,-1,-1,-1,-1,-1,-1,-1,-1,-1,-1,-1,-1,-1,-1],"loss_changes":[1.9618814E5,3.4280938E3,1.0226E4,1.1985156E2,3.6035117E3,2.3109297E3,5.8721514E3,0E0,7.727344E1,1.863941E3,3.021167E2,2.56262E3,2.1544453E3,1.7223447E3,3.6780298E3,7.7234375E1,0E0,5.127173E1,1.1653353E3,1.7454346E2,0E0,2.1296611E3,1.6924014E3,1.0011094E3,2.418796E3,8.006571E2,1.3949609E3,9.941826E2,1.698116E3,0E0,3.1898438E1,0E0,0E0,0E0,3.2337555E2,1.0742822E2,0E0,0E0,7.817179E2,3.2284104E3,1.3863496E3,6.225781E2,5.181957E2,0E0,1.3729711E3,0E0,2.6840668E2,1.2023151E2,0E0,5.3874023E2,0E0,1.3396272E3,1.2845553E3,0E0,0E0,0E0,0E0,0E0,0E0,0E0,0E0,0E0,0E0,0E0,0E0,0E0,0E0,0E0,0E0,0E0,0E0,0E0,0E0,0E0,0E0,0E0,0E0,0E0,0E0,0E0,0E0],"parents":[2147483647,0,0,1,1,2,2,3,3,4,4,5,5,6,6,8,8,9,9,10,10,11,11,12,12,13,13,14,14,15,15,17,17,18,18,19,19,21,21,22,22,23,23,24,24,25,25,26,26,27,27,28,28,30,30,34,34,35,35,38,38,39,39,40,40,41,41,42,42,44,44,46,46,47,47,49,49,51,51,52,52],"right_children":[2,4,6,8,10,12,14,-1,16,18,20,22,24,26,28,30,-1,32,34,36,-1,38,40,42,44,46,48,50,52,-1,54,-1,-1,-1,56,58,-1,-1,60,62,64,66,68,-1,70,-1,72,74,-1,76,-1,78,80,-1,-1,-1,-1,-1,-1,-1,-1,-1,-1,-1,-1,-1,-1,-1,-1,-1,-1,-1,-1,-1,-1,-1,-1,-1,-1,-1,-1],"split_conditions":[-1.8787968E0,-1.7797948E0,1.6580755E0,-5.824499E-1,2.2538888E0,-4.2765895E-1,2.9611588E-1,-8.2600996E-2,-1.771138E-1,-2.3469388E0,1.8502636E0,-4.9577323E-1,1.2678065E0,-1.909672E0,-7.767268E-1,3.373822E-3,-8.223891E-2,-2.2066813E0,7.2961336E-1,1.7193743E0,-9.885038E-2,4.355091E-2,-5.502808E-1,4.422857E0,1.5804727E-1,5.9260345E-1,-2.07635E0,8.892543E-1,9.2507714E-1,-7.723102E-2,3.177769E-1,8.72192E-2,-7.237501E-2,-9.1338664E-2,1.4933058E0,1.1131743E0,-9.026064E-2,-8.9413665E-2,2.1733487E-2,2.873728E-1,1.1891543E0,2.2652838E0,2.6361036E0,-9.032401E-2,-3.8093157E-2,-8.987524E-2,7.603017E-1,-1.1460606E0,-8.859587E-2,1.5964258E0,-8.892783E-2,2.0320888E0,3.7616694E-1,8.7486446E-2,-6.596953E-2,-9.085157E-2,9.112594E-2,8.7375484E-2,-7.8832E-2,-8.9520425E-2,7.513993E-2,-8.977619E-2,1.2965257E-2,-8.92829E-2,-1.2016504E-2,-8.699438E-2,-1.6988834E-2,-8.676508E-2,8.55677E-2,4.7494948E-2,-8.858537E-2,9.064206E-2,-8.735716E-2,8.79088E-2,-8.18816E-2,8.119569E-2,-9.371734E-2,-9.01026E-2,7.6111846E-2,-8.8493474E-2,8.6129114E-2],"split_indices":[14,10,4,4,4,14,30,0,3,7,17,20,7,19,12,30,0,12,29,16,0,4,10,5,15,17,27,9,12,0,12,0,0,0,1,10,0,0,27,15,19,19,14,0,2,0,17,0,0,14,0,19,2,0,0,0,0,0,0,0,0,0,0,0,0,0,0,0,0,0,0,0,0,0,0,0,0,0,0,0,0],"split_type":[0,0,0,0,0,0,0,0,0,0,0,0,0,0,0,0,0,0,0,0,0,0,0,0,0,0,0,0,0,0,0,0,0,0,0,0,0,0,0,0,0,0,0,0,0,0,0,0,0,0,0,0,0,0,0,0,0,0,0,0,0,0,0,0,0,0,0,0,0,0,0,0,0,0,0,0,0,0,0,0,0],"sum_hessian":[8.825278E4,3.9436156E4,4.881662E4,3.6761074E4,2.6750808E3,4.2118625E4,6.6979985E3,9.633194E0,3.675144E4,1.2170134E3,1.4580674E3,9.825104E3,3.2293521E4,2.827632E3,3.8703667E3,3.6745465E4,5.976982E0,2.5828436E2,9.587291E2,1.4360526E3,2.2014734E1,1.1588667E3,8.666236E3,3.0233496E4,2.0600251E3,3.8186566E2,2.4457664E3,2.3071638E3,1.5632029E3,6.4003253E0,3.6739062E4,2.5386147E2,4.422885E0,8.009779E2,1.5775117E2,1.4226759E3,1.3376689E1,3.4106204E2,8.1780475E2,3.079644E3,5.5865923E3,3.0039998E4,1.9349768E2,9.6492334E2,1.0951017E3,9.5628265E1,2.862374E2,1.3836816E2,2.3073982E3,2.2146433E3,9.2520485E1,1.0087964E3,5.544065E2,3.673635E4,2.7114296E0,2.9230963E1,1.2852022E2,1.4136136E3,9.062285E0,7.9018776E1,7.3878595E2,1.4073323E3,1.6723118E3,4.9281685E3,6.58424E2,2.9718426E4,3.2157153E2,6.4780876E1,1.287168E2,8.598521E2,2.3524956E2,2.6400128E2,2.223611E1,1.2779711E2,1.0571049E1,2.1705046E3,4.4138817E1,8.687211E2,1.4007523E2,1.4021088E2,4.141956E2],"tree_param":{"num_deleted":"0","num_feature":"31","num_nodes":"81","size_leaf_vector":"1"}},{"base_weights":[7.2132866E-3,1.5812116E0,-1.3092458E0,1.6826489E0,4.83373E-1,1.5297812E0,-1.3578311E0,1.6838205E0,-8.267957E-2,-1.2743744E0,1.1074833E0,1.6932564E0,-8.328923E-2,-1.3992088E0,7.394352E-1,-8.412512E-2,1.6844211E0,8.311074E-2,-8.831195E-2,-8.648635E-2,1.2754319E0,8.517438E-2,-6.203707E-2,4.2368895E-1,-1.4422386E0,1.4272522E0,-8.606597E-2,-7.460003E-2,1.6850171E0,1.4106697E0,-8.506705E-2,1.2404386E0,-8.5977726E-2,-8.3607996E-1,-1.5146083E0,1.6130091E0,-8.4521286E-2,8.4273994E-2,-7.2588E-2,7.5748846E-2,-8.681041E-2,7.944881E-2,-8.8020064E-2,-8.6892344E-2,-1.6612306E-2,-7.858129E-2,-3.358704E-2,8.5264154E-2,-8.63924E-2],"categories":[],"categories_nodes":[],"categories_segments":[],"categories_sizes":[],"default_left":[0,0,0,0,0,0,0,0,0,0,0,0,0,0,0,0,0,0,0,0,0,0,0,0,0,0,0,0,0,0,0,0,0,0,0,0,0,0,0,0,0,0,0,0,0,0,0,0,0],"id":4,"left_children":[1,3,5,7,9,11,13,15,-1,17,19,21,-1,23,25,-1,27,-1,-1,-1,29,-1,-1,31,33,35,-1,-1,37,39,-1,41,-1,43,45,47,-1,-1,-1,-1,-1,-1,-1,-1,-1,-1,-1,-1,-1],"loss_changes":[1.8026028E5,4.4115E3,6.5363984E3,1.4453125E2,3.679377E3,4.194475E2,4.0428906E3,7.613281E1,0E0,1.2724982E3,1.181419E3,2.4904297E1,0E0,3.5833203E3,1.5287773E3,0E0,7.1140625E1,0E0,0E0,0E0,9.432046E2,0E0,0E0,1.8472902E3,1.9561953E3,4.11208E2,0E0,0E0,5.5070312E1,7.365703E2,0E0,8.016686E2,0E0,2.1627563E3,1.914625E3,2.0831433E2,0E0,0E0,0E0,0E0,0E0,0E0,0E0,0E0,0E0,0E0,0E0,0E0,0E0],"parents":[2147483647,0,0,1,1,2,2,3,3,4,4,5,5,6,6,7,7,9,9,10,10,11,11,13,13,14,14,16,16,20,20,23,23,24,24,25,25,28,28,29,29,31,31,33,33,34,34,35,35],"right_children":[2,4,6,8,10,12,14,16,-1,18,20,22,-1,24,26,-1,28,-1,-1,-1,30,-1,-1,32,34,36,-1,-1,38,40,-1,42,-1,44,46,48,-1,-1,-1,-1,-1,-1,-1,-1,-1,-1,-1,-1,-1],"split_conditions":[-1.6295556E0,-1.7797948E0,-1.6304436E0,-1.8787968E0,-5.072303E-2,-8.4349626E-1,2.028313E0,-4.9456975E-1,-8.267957E-2,-5.215608E0,-4.167066E-1,-2.3730522E-1,-8.328923E-2,-1.3738276E0,-7.941043E-3,-8.412512E-2,3.373822E-3,8.311074E-2,-8.831195E-2,-8.648635E-2,2.5876197E-1,8.517438E-2,-6.203707E-2,-2.3578571E-1,-8.030017E-1,-3.2445577E-1,-8.606597E-2,-7.460003E-2,3.177769E-1,1.9286298E0,-8.506705E-2,-1.5856707E-1,-8.5977726E-2,1.1917981E-1,1.2678065E0,7.508813E-1,-8.4521286E-2,8.4273994E-2,-7.2588E-2,7.5748846E-2,-8.681041E-2,7.944881E-2,-8.8020064E-2,-8.6892344E-2,-1.6612306E-2,-7.858129E-2,-3.358704E-2,8.5264154E-2,-8.63924E-2],"split_indices":[14,10,17,14,21,12,17,11,0,7,11,9,0,20,8,0,30,0,0,0,12,0,0,12,14,14,0,0,12,1,0,26,0,16,7,0,0,0,0,0,0,0,0,0,0,0,0,0,0],"split_type":[0,0,0,0,0,0,0,0,0,0,0,0,0,0,0,0,0,0,0,0,0,0,0,0,0,0,0,0,0,0,0,0,0,0,0,0,0,0,0,0,0,0,0,0,0,0,0,0,0],"sum_hessian":[8.699182E4,3.9620344E4,4.7371477E4,3.626868E4,3.3516628E3,7.965317E2,4.6574945E4,3.6256445E4,1.2236008E1,8.7795215E2,2.4737107E3,7.58214E2,3.8317745E1,4.567416E4,9.0078827E2,5.96791E0,3.6250477E4,1.2561442E2,7.523377E2,1.3772794E2,2.3359827E3,7.559971E2,2.2168753E0,1.0530785E3,4.462108E4,7.0433606E2,1.9645226E2,6.331716E0,3.6244145E4,2.2349717E3,1.0101095E2,7.6280804E2,2.9027048E2,4.7604795E3,3.98606E4,6.651857E2,3.9150337E1,3.6239258E4,4.884358E0,2.1637695E3,7.1202286E1,6.838514E2,7.895662E1,1.7055032E3,3.0549763E3,3.7334188E4,2.5264119E3,6.4778357E2,1.7402115E1],"tree_param":{"num_deleted":"0","num_feature":"31","num_nodes":"49","size_leaf_vector":"1"}},{"base_weights":[1.2167883E-2,1.5297672E0,-1.25898E0,-8.312434E-2,1.5611464E0,-1.4241172E0,-1.6467196E-1,1.5801383E0,-8.273638E-2,1.9152677E-1,-1.4525018E0,7.887998E-1,-1.083524E0,-8.573621E-2,1.5908977E0,-8.412965E-2,1.6147254E0,-1.0473868E0,-1.5584345E0,1.3017962E0,-2.8667146E-1,4.1227323E-1,-1.4737813E0,1.5982066E0,-8.332758E-2,1.7561474E0,-8.015778E-2,-1.3512355E0,-3.4081003E-1,-1.6131251E0,-6.302356E-1,1.4464133E0,-8.496687E-2,-8.363928E-2,8.9986974E-1,1.3805195E0,-8.459852E-2,-8.329191E-2,1.3439122E-1,8.018279E-2,-8.656609E-2,8.903659E-2,-6.35257E-2,1.6374674E-2,-7.489799E-2,3.508211E-2,-8.560824E-2,-4.4038042E-2,-8.141226E-2,2.0263854E-2,-8.428214E-2,7.764187E-2,-8.39897E-2,-8.4575914E-2,7.660546E-2,-8.3328694E-2,8.21818E-2,-8.175801E-2,8.9088716E-2],"categories":[],"categories_nodes":[],"categories_segments":[],"categories_sizes":[],"default_left":[0,0,0,0,0,0,0,0,0,0,0,0,0,0,0,0,0,0,0,0,0,0,0,0,0,0,0,0,0,0,0,0,0,0,0,0,0,0,0,0,0,0,0,0,0,0,0,0,0,0,0,0,0,0,0,0,0,0,0],"id":5,"left_children":[1,3,5,-1,7,9,11,13,-1,15,17,19,21,-1,23,-1,25,27,29,31,33,35,37,39,-1,41,-1,43,45,47,49,51,-1,-1,53,55,-1,-1,57,-1,-1,-1,-1,-1,-1,-1,-1,-1,-1,-1,-1,-1,-1,-1,-1,-1,-1,-1,-1],"loss_changes":[1.6594089E5,3.9302031E3,8.459031E3,0E0,2.3740469E3,1.8655156E3,5.379182E3,1.3711406E3,0E0,1.8780935E3,1.7137188E3,1.6628477E3,1.8257761E3,0E0,9.187031E2,0E0,1.8491272E2,1.7790068E3,1.6073594E3,8.8799243E2,1.6033676E3,1.3220565E3,7.661704E2,6.992969E2,0E0,3.0818726E1,0E0,1.4280225E3,3.5662485E3,3.298828E2,1.9291892E3,6.504065E2,0E0,0E0,8.63412E2,3.588443E2,0E0,0E0,7.7686176E2,0E0,0E0,0E0,0E0,0E0,0E0,0E0,0E0,0E0,0E0,0E0,0E0,0E0,0E0,0E0,0E0,0E0,0E0,0E0,0E0],"parents":[2147483647,0,0,1,1,2,2,4,4,5,5,6,6,7,7,9,9,10,10,11,11,12,12,14,14,16,16,17,17,18,18,19,19,20,20,21,21,22,22,23,23,25,25,27,27,28,28,29,29,30,30,31,31,34,34,35,35,38,38],"right_children":[2,4,6,-1,8,10,12,14,-1,16,18,20,22,-1,24,-1,26,28,30,32,34,36,38,40,-1,42,-1,44,46,48,50,52,-1,-1,54,56,-1,-1,58,-1,-1,-1,-1,-1,-1,-1,-1,-1,-1,-1,-1,-1,-1,-1,-1,-1,-1,-1,-1],"split_conditions":[-1.6295556E0,-5.824499E-1,1.6978945E0,-8.312434E-2,3.177769E-1,-1.3738276E0,-1.0806325E-1,-4.832469E-1,-8.273638E-2,-1.8655068E0,-4.6793887E-1,-6.6592616E-1,-2.0235324E0,-8.573621E-2,1.1131743E0,-8.412965E-2,8.1567936E-2,4.3457693E-1,8.435239E-1,1.2099847E0,2.6117444E-1,-4.59416E-2,1.2233754E0,1.9286298E0,-8.332758E-2,-3.9426023E-1,-8.015778E-2,-1.5668079E0,5.288646E-1,-1.6822568E0,-2.1726108E-1,1.5964258E0,-8.496687E-2,-8.363928E-2,-6.858654E-1,4.8576385E-1,-8.459852E-2,-8.329191E-2,1.0788374E0,8.018279E-2,-8.656609E-2,8.903659E-2,-6.35257E-2,1.6374674E-2,-7.489799E-2,3.508211E-2,-8.560824E-2,-4.4038042E-2,-8.141226E-2,2.0263854E-2,-8.428214E-2,7.764187E-2,-8.39897E-2,-8.4575914E-2,7.660546E-2,-8.3328694E-2,8.21818E-2,-8.175801E-2,8.9088716E-2],"split_indices":[14,4,4,0,12,20,8,11,0,1,14,12,12,0,10,0,6,25,20,3,18,18,12,1,0,24,0,13,25,10,12,14,0,0,1,11,0,0,1,0,0,0,0,0,0,0,0,0,0,0,0,0,0,0,0,0,0,0,0],"split_type":[0,0,0,0,0,0,0,0,0,0,0,0,0,0,0,0,0,0,0,0,0,0,0,0,0,0,0,0,0,0,0,0,0,0,0,0,0,0,0,0,0,0,0,0,0,0,0,0,0,0,0,0,0,0,0,0,0,0,0],"sum_hessian":[8.601816E4,3.920812E4,4.681003E4,3.811514E2,3.882697E4,4.0672086E4,6.137946E3,3.8599523E4,2.2744759E2,7.021139E2,3.9969973E4,3.0122964E3,3.1256494E3,1.2512175E2,3.8474402E4,3.0296988E2,3.99144E2,8.287448E3,3.1682523E4,2.0393313E3,9.729651E2,6.467392E2,2.4789102E3,3.8388777E4,8.562573E1,3.8277573E2,1.6368288E1,5.794661E3,2.4927869E3,2.9918926E4,1.763597E3,1.946073E3,9.325828E1,4.4855484E2,5.244103E2,4.431652E2,2.0357402E2,2.2144165E3,2.6449368E2,3.8326566E4,6.220764E1,3.8009998E2,2.6757596E0,4.6565796E2,5.329003E3,1.4165029E3,1.0762838E3,6.063985E2,2.9312527E4,8.9049945E2,8.7309753E2,1.8824915E3,6.3581505E1,1.0252225E2,4.2188803E2,3.480158E1,4.083636E2,1.27522095E2,1.3697159E2],"tree_param":{"num_deleted":"0","num_feature":"31","num_nodes":"59","size_leaf_vector":"1"}},{"base_weights":[2.1419537E-3,1.5044695E0,-1.1793481E0,1.5793008E0,5.9794635E-1,-1.3572196E0,-9.418581E-2,-7.869451E-2,1.5803326E0,-6.635941E-1,1.4959859E0,-7.8962153E-1,-1.4341509E0,6.854371E-1,-1.0284106E0,-7.54894E-2,1.5809953E0,1.5330931E0,-1.2471412E0,1.5465368E0,-9.340962E-2,-1.6865222E-1,-1.4600862E0,-1.5112772E0,-6.2928957E-1,-6.718471E-1,1.1408757E0,-1.2727607E0,1.0224544E0,1.5815853E0,-8.246039E-2,7.912767E-2,-6.478586E-2,-1.6932288E0,9.9924976E-1,1.572614E0,-7.955934E-2,-8.3822235E-2,4.682236E-1,3.2037908E-1,-8.280062E-2,7.9011434E-1,-1.5228158E0,2.1907398E-2,-1.6338706E0,1.256003E0,-8.070242E-2,1.2527765E0,-8.104425E-2,-4.1746672E-2,-8.042791E-2,-7.913879E-2,1.6570343E0,-8.841348E-2,7.9098664E-2,-8.0842815E-2,-8.7318145E-2,-8.353441E-2,8.201495E-2,-8.0019206E-2,7.921203E-2,-8.17967E-2,4.9828492E-2,-8.7450586E-2,8.922303E-2,7.7787645E-2,-7.814598E-2,-5.9481937E-2,-7.805883E-2,-8.3747536E-2,3.1955224E-2,-7.970226E-2,-8.7278366E-2,-7.9718865E-2,7.9208456E-2,7.594466E-2,2.0590596E-2,-8.033302E-2,7.080588E-2,8.604843E-2,-6.7426994E-2],"categories":[],"categories_nodes":[],"categories_segments":[],"categories_sizes":[],"default_left":[0,0,0,0,0,0,0,0,0,0,0,0,0,0,0,0,0,0,0,0,0,0,0,0,0,0,0,0,0,0,0,0,0,0,0,0,0,0,0,0,0,0,0,0,0,0,0,0,0,0,0,0,0,0,0,0,0,0,0,0,0,0,0,0,0,0,0,0,0,0,0,0,0,0,0,0,0,0,0,0,0],"id":6,"left_children":[1,3,5,7,9,11,13,-1,15,17,19,21,23,25,27,-1,29,31,33,35,-1,37,39,41,43,45,47,49,51,53,-1,-1,-1,55,57,59,-1,-1,61,63,-1,65,67,69,71,73,-1,75,-1,77,-1,-1,79,-1,-1,-1,-1,-1,-1,-1,-1,-1,-1,-1,-1,-1,-1,-1,-1,-1,-1,-1,-1,-1,-1,-1,-1,-1,-1,-1,-1],"loss_changes":[1.4892017E5,2.504586E3,9.064949E3,1.1349219E2,3.1935398E3,1.7608125E3,4.818722E3,0E0,7.222656E1,1.504942E3,2.8289185E2,2.0058733E3,2.2047969E3,2.2301482E3,1.5094775E3,0E0,6.760156E1,3.654657E1,9.30603E2,1.3527173E2,0E0,2.4040798E3,8.0871533E2,8.622578E2,2.0338386E3,1.6490542E3,8.366758E2,1.1117373E3,5.3323236E2,4.7117188E1,0E0,0E0,0E0,3.1640625E-1,2.6667957E2,6.1922607E1,0E0,0E0,1.9585903E3,7.015032E2,0E0,2.950412E2,4.1051562E2,1.9775435E3,2.6567383E0,2.8149347E2,0E0,5.803762E2,0E0,1.3197097E3,0E0,0E0,5.200885E1,0E0,0E0,0E0,0E0,0E0,0E0,0E0,0E0,0E0,0E0,0E0,0E0,0E0,0E0,0E0,0E0,0E0,0E0,0E0,0E0,0E0,0E0,0E0,0E0,0E0,0E0,0E0,0E0],"parents":[2147483647,0,0,1,1,2,2,3,3,4,4,5,5,6,6,8,8,9,9,10,10,11,11,12,12,13,13,14,14,16,16,17,17,18,18,19,19,21,21,22,22,23,23,24,24,25,25,26,26,27,27,28,28,29,29,33,33,34,34,35,35,38,38,39,39,41,41,42,42,43,43,44,44,45,45,47,47,49,49,52,52],"right_children":[2,4,6,8,10,12,14,-1,16,18,20,22,24,26,28,-1,30,32,34,36,-1,38,40,42,44,46,48,50,52,54,-1,-1,-1,56,58,60,-1,-1,62,64,-1,66,68,70,72,74,-1,76,-1,78,-1,-1,80,-1,-1,-1,-1,-1,-1,-1,-1,-1,-1,-1,-1,-1,-1,-1,-1,-1,-1,-1,-1,-1,-1,-1,-1,-1,-1,-1,-1],"split_conditions":[-1.8787968E0,-1.7797948E0,1.6580755E0,-5.824499E-1,2.4440694E0,-8.030017E-1,-4.5306566E-1,-7.869451E-2,3.373822E-3,-2.3469388E0,1.8502636E0,-1.3440655E-1,7.803142E-1,2.8527126E-1,1.6235279E0,-7.54894E-2,-1.771138E-1,-2.2066813E0,7.2961336E-1,1.1594908E0,-9.340962E-2,-7.280378E-1,-1.5668079E0,-2.2402952E0,3.0262575E-2,-7.4418086E-1,8.892543E-1,-3.5426798E-1,4.4592145E-1,-1.6434549E0,-8.246039E-2,7.912767E-2,-6.478586E-2,6.0480654E-1,1.4933058E0,-6.1514926E-1,-7.955934E-2,-8.3822235E-2,6.148456E-2,1.2347574E0,-8.280062E-2,-1.5740507E0,-4.8998955E-1,-6.518774E-1,1.2678065E0,8.968904E-1,-8.070242E-2,3.3160433E-1,-8.104425E-2,9.2507714E-1,-8.042791E-2,-7.913879E-2,4.9881557E-1,-8.841348E-2,7.9098664E-2,-8.0842815E-2,-8.7318145E-2,-8.353441E-2,8.201495E-2,-8.0019206E-2,7.921203E-2,-8.17967E-2,4.9828492E-2,-8.7450586E-2,8.922303E-2,7.7787645E-2,-7.814598E-2,-5.9481937E-2,-7.805883E-2,-8.3747536E-2,3.1955224E-2,-7.970226E-2,-8.7278366E-2,-7.9718865E-2,7.9208456E-2,7.594466E-2,2.0590596E-2,-8.033302E-2,7.080588E-2,8.604843E-2,-6.7426994E-2],"split_indices":[14,10,4,4,4,14,12,0,30,7,17,0,29,30,17,0,3,12,29,7,0,0,13,23,12,18,9,29,0,24,0,0,0,18,1,24,0,0,16,16,0,16,14,9,7,10,0,10,0,12,0,0,0,0,0,0,0,0,0,0,0,0,0,0,0,0,0,0,0,0,0,0,0,0,0,0,0,0,0,0,0],"split_type":[0,0,0,0,0,0,0,0,0,0,0,0,0,0,0,0,0,0,0,0,0,0,0,0,0,0,0,0,0,0,0,0,0,0,0,0,0,0,0,0,0,0,0,0,0,0,0,0,0,0,0,0,0,0,0,0,0,0,0,0,0,0,0,0,0,0,0,0,0,0,0,0,0,0,0,0,0,0,0,0,0],"sum_hessian":[8.389739E4,3.6933812E4,4.6963582E4,3.4116812E4,2.816998E3,4.0349543E4,6.6140386E3,1.0662749E1,3.4106152E4,1.1715287E3,1.6454694E3,4.8174883E3,3.5532055E4,3.6054822E3,3.0085562E3,6.8242583E0,3.409933E4,2.4555223E2,9.259765E2,1.6216425E3,2.3826872E1,2.5017112E3,2.315777E3,3.2424123E4,3.1079338E3,9.057421E2,2.69974E3,2.6886023E3,3.1995392E2,3.409361E4,5.716611E0,2.4176564E2,3.7865891E0,7.7276697E2,1.5320953E2,1.608771E3,1.2871457E1,7.424178E2,1.7592935E3,2.2950764E2,2.0862693E3,1.6141895E2,3.2262703E4,1.8862156E3,1.2217184E3,2.9723425E2,6.0850793E2,2.5951367E3,1.0460317E2,5.764595E2,2.1121428E3,6.2376534E1,2.575774E2,3.420999E0,3.4090188E4,3.2994592E2,4.42821E2,2.9352335E1,1.238572E2,5.3745756E0,1.6033964E3,3.5267126E2,1.4066222E3,9.501502E1,1.3449261E2,1.22046005E2,3.9372932E1,3.334392E3,2.892831E4,5.0262802E2,1.3835875E3,9.11864E2,3.098544E2,3.028931E1,2.6694495E2,1.9707137E3,6.2442303E2,2.7797305E2,2.9848642E2,2.5263086E2,4.9465384E0],"tree_param":{"num_deleted":"0","num_feature":"31","num_nodes":"81","size_leaf_vector":"1"}},{"base_weights":[-1.757052E-2,1.458803E0,-1.1441095E0,1.5344527E0,4.7942957E-1,-1.336614E0,-2.193488E-2,-9.671461E-2,1.5365927E0,-8.9702606E-1,1.441802E0,-6.989415E-1,-1.4272529E0,6.7791224E-1,-9.911549E-1,-9.2680685E-2,1.5371774E0,9.370217E-2,-8.2812876E-2,1.4910369E0,-8.9505605E-2,-7.740113E-2,-1.4131035E0,2.691885E-1,-1.4487609E0,1.1513047E0,-1.3759851E-1,2.8774613E-1,-1.3708336E0,1.5377101E0,-7.670184E-2,1.4448656E0,-7.8685746E-2,-8.6840145E-2,1.519456E0,4.3591997E-1,-8.058839E-2,-8.0377065E-2,3.978003E-1,1.4430245E0,-8.108916E-2,-1.4703752E0,-7.553822E-1,1.3203319E0,-8.4333204E-2,-8.024762E-2,1.0639939E0,-7.966752E-2,1.0729142E0,-7.8450106E-2,-4.2558807E-1,-6.890688E-2,7.690602E-2,-7.667839E-2,7.785794E-2,7.695469E-2,-7.962872E-2,5.3950228E-2,-2.472241E-2,8.853524E-2,-8.0800734E-2,-7.812361E-2,8.2069814E-2,8.131693E-3,-7.409444E-2,6.1454564E-2,-8.139999E-2,7.131801E-2,-8.0239534E-2,6.663375E-2,-8.0218375E-2,-7.921139E-2,6.990533E-2,8.22478E-2,-7.93639E-2],"categories":[],"categories_nodes":[],"categories_segments":[],"categories_sizes":[],"default_left":[0,0,0,0,0,0,0,0,0,0,0,0,0,0,0,0,0,0,0,0,0,0,0,0,0,0,0,0,0,0,0,0,0,0,0,0,0,0,0,0,0,0,0,0,0,0,0,0,0,0,0,0,0,0,0,0,0,0,0,0,0,0,0,0,0,0,0,0,0,0,0,0,0,0,0],"id":7,"left_children":[1,3,5,7,9,11,13,-1,15,17,19,21,23,25,27,-1,29,31,-1,33,-1,35,37,39,41,43,45,47,49,51,-1,53,-1,-1,55,57,-1,-1,59,61,-1,63,65,67,-1,-1,69,-1,71,-1,73,-1,-1,-1,-1,-1,-1,-1,-1,-1,-1,-1,-1,-1,-1,-1,-1,-1,-1,-1,-1,-1,-1,-1,-1],"loss_changes":[1.3521503E5,2.606164E3,9.961371E3,2.4542969E2,3.3453208E3,2.2739531E3,4.5813667E3,0E0,6.75625E1,7.8195544E2,2.3913794E2,2.175078E3,1.2577578E3,1.514316E3,1.3755466E3,0E0,5.5742188E1,1.0203396E3,0E0,1.369646E2,0E0,2.0651855E3,8.035283E2,9.618655E2,5.0889062E2,1.1926802E3,2.543162E3,9.604573E2,4.0841504E2,4.115625E1,0E0,8.604706E1,0E0,0E0,9.119263E1,1.1761218E3,0E0,0E0,6.163459E2,1.6189648E2,0E0,6.206953E2,1.7869958E3,7.288843E2,0E0,0E0,5.707246E2,0E0,3.9845648E2,0E0,9.163234E2,0E0,0E0,0E0,0E0,0E0,0E0,0E0,0E0,0E0,0E0,0E0,0E0,0E0,0E0,0E0,0E0,0E0,0E0,0E0,0E0,0E0,0E0,0E0,0E0],"parents":[2147483647,0,0,1,1,2,2,3,3,4,4,5,5,6,6,8,8,9,9,10,10,11,11,12,12,13,13,14,14,16,16,17,17,19,19,21,21,22,22,23,23,24,24,25,25,26,26,27,27,28,28,29,29,31,31,34,34,35,35,38,38,39,39,41,41,42,42,43,43,46,46,48,48,50,50],"right_children":[2,4,6,8,10,12,14,-1,16,18,20,22,24,26,28,-1,30,32,-1,34,-1,36,38,40,42,44,46,48,50,52,-1,54,-1,-1,56,58,-1,-1,60,62,-1,64,66,68,-1,-1,70,-1,72,-1,74,-1,-1,-1,-1,-1,-1,-1,-1,-1,-1,-1,-1,-1,-1,-1,-1,-1,-1,-1,-1,-1,-1,-1,-1],"split_conditions":[-1.8787968E0,-1.7797948E0,1.6580755E0,1.3777962E-1,2.4440694E0,-8.030017E-1,2.255348E-3,-9.671461E-2,-1.2689805E0,-5.158901E-2,1.8502636E0,-1.3440655E-1,-1.3963499E0,3.3160433E-1,-1.5426998E0,-9.2680685E-2,-1.771138E-1,-1.2306924E0,-8.2812876E-2,-1.3017991E-1,-8.9505605E-2,1.2099847E0,1.4880801E0,-5.8111507E-1,7.710452E-1,2.177199E0,1.7005065E-1,9.099517E-2,1.1099938E0,-5.824499E-1,-7.670184E-2,3.231419E-1,-7.8685746E-2,-8.6840145E-2,1.7193743E0,-2.5621864E-1,-8.058839E-2,-8.0377065E-2,-1.5668079E0,1.054077E0,-8.108916E-2,-1.3738276E0,-1.5058472E0,1.054077E0,-8.4333204E-2,-8.024762E-2,3.398631E-2,-7.966752E-2,-1.5731406E-1,-7.8450106E-2,1.1234398E0,-6.890688E-2,7.690602E-2,-7.667839E-2,7.785794E-2,7.695469E-2,-7.962872E-2,5.3950228E-2,-2.472241E-2,8.853524E-2,-8.0800734E-2,-7.812361E-2,8.2069814E-2,8.131693E-3,-7.409444E-2,6.1454564E-2,-8.139999E-2,7.131801E-2,-8.0239534E-2,6.663375E-2,-8.0218375E-2,-7.921139E-2,6.990533E-2,8.22478E-2,-7.93639E-2],"split_indices":[14,10,4,11,4,14,8,0,24,16,17,0,23,10,19,0,3,10,0,11,0,3,11,26,23,29,23,17,11,4,0,20,0,0,16,13,0,0,13,14,0,20,13,14,0,0,27,0,16,0,11,0,0,0,0,0,0,0,0,0,0,0,0,0,0,0,0,0,0,0,0,0,0,0,0],"split_type":[0,0,0,0,0,0,0,0,0,0,0,0,0,0,0,0,0,0,0,0,0,0,0,0,0,0,0,0,0,0,0,0,0,0,0,0,0,0,0,0,0,0,0,0,0,0,0,0,0,0,0,0,0,0,0,0,0,0,0,0,0,0,0,0,0,0,0,0,0,0,0,0,0,0,0],"sum_hessian":[8.1296484E4,3.5184938E4,4.6111543E4,3.2661502E4,2.5234365E3,3.9359402E4,6.75214E3,1.9581179E1,3.2641922E4,1.0383623E3,1.4850741E3,4.89939E3,3.446001E4,3.9211128E3,2.831027E3,5.0826864E0,3.2636838E4,4.508806E2,5.874817E2,1.4633206E3,2.1753557E1,2.6201565E3,2.2792334E3,4.3127875E2,3.4028734E4,2.4806936E3,1.4404192E3,6.481285E2,2.1828987E3,3.263168E4,5.1588984E0,2.491332E2,2.0174742E2,1.2246525E1,1.451074E3,1.9638635E3,6.56293E2,2.0583403E3,2.20893E2,2.6624307E2,1.6503566E2,3.299895E4,1.029784E3,2.3417554E3,1.3893835E2,6.483433E2,7.920759E2,1.9055936E2,4.5756912E2,1.8040288E3,3.7886987E2,4.1183977E0,3.262756E4,8.591731E0,2.4054146E2,1.4424769E3,8.597022E0,1.1611201E3,8.0274347E2,1.3141943E2,8.947357E1,1.6059027E1,2.5018405E2,2.3093723E2,3.276801E4,3.1439362E2,7.153904E2,2.2603362E3,8.141906E1,7.200715E2,7.2004456E1,4.9470974E1,4.0809814E2,1.3601926E2,2.4285063E2],"tree_param":{"num_deleted":"0","num_feature":"31","num_nodes":"75","size_leaf_vector":"1"}},{"base_weights":[-1.0861326E-2,1.4237393E0,-1.12362E0,1.4946411E0,5.90103E-1,-1.3061398E0,-4.54621E-2,-7.349521E-2,1.4955974E0,-6.087479E-1,1.4450969E0,-1.3417656E0,-3.262242E-2,6.2518525E-1,-9.5835084E-1,1.4961228E0,-7.465724E-2,1.4922568E0,-1.1723363E0,-8.519416E-2,1.52447E0,-1.3985304E0,-7.4385756E-1,-7.7010415E-2,1.032642E0,1.0829681E0,-1.2944023E-1,2.751733E-1,-1.3306472E0,-8.104658E-2,1.4965338E0,7.695197E-2,-6.0964864E-2,-7.94809E-2,5.637266E-1,1.5407869E0,-8.072954E-2,-1.1380363E0,-1.4826639E0,-7.800046E-2,2.1938987E-2,1.3771532E0,-7.823515E-2,1.2214916E0,-7.955167E-2,-1.0275376E0,9.677954E-1,-7.7383235E-2,1.0130862E0,-7.6335125E-2,-4.1482177E-1,-7.319048E-2,7.484612E-2,7.0786156E-2,-7.758091E-2,-7.0867576E-2,7.749837E-2,-6.0132965E-3,-6.5756485E-2,-7.601939E-2,-5.2202057E-2,5.6403704E-2,-3.6043275E-2,-7.480895E-2,7.8275196E-2,6.614267E-2,-8.332712E-2,-7.819222E-2,4.7007486E-2,7.124826E-2,-7.8730516E-2,-7.856768E-2,7.0176095E-2,7.819264E-2,-7.712068E-2],"categories":[],"categories_nodes":[],"categories_segments":[],"categories_sizes":[],"default_left":[0,0,0,0,0,0,0,0,0,0,0,0,0,0,0,0,0,0,0,0,0,0,0,0,0,0,0,0,0,0,0,0,0,0,0,0,0,0,0,0,0,0,0,0,0,0,0,0,0,0,0,0,0,0,0,0,0,0,0,0,0,0,0,0,0,0,0,0,0,0,0,0,0,0,0],"id":8,"left_children":[1,3,5,7,9,11,13,-1,15,17,19,21,23,25,27,29,-1,31,33,-1,35,37,39,-1,41,43,45,47,49,-1,51,-1,-1,-1,53,55,-1,57,59,-1,61,63,-1,65,-1,67,69,-1,71,-1,73,-1,-1,-1,-1,-1,-1,-1,-1,-1,-1,-1,-1,-1,-1,-1,-1,-1,-1,-1,-1,-1,-1,-1,-1],"loss_changes":[1.2737383E5,2.0592344E3,8.842566E3,9.3265625E1,2.8029517E3,1.7435156E3,3.9842012E3,0E0,5.2671875E1,1.3501039E3,4.0150586E2,1.2677734E3,1.682751E3,1.2961698E3,1.2660608E3,4.35625E1,0E0,3.248517E1,6.517395E2,0E0,8.225098E1,7.465625E2,2.0272933E3,0E0,5.515611E2,8.6693335E2,1.3977859E3,8.621657E2,3.7952954E2,0E0,3.9117188E1,0E0,0E0,0E0,3.173008E2,4.4283203E1,0E0,1.5028965E3,4.253672E2,0E0,1.3765712E3,2.9600452E2,0E0,6.52302E2,0E0,8.2453186E2,7.443895E2,0E0,4.6237686E2,0E0,8.384369E2,0E0,0E0,0E0,0E0,0E0,0E0,0E0,0E0,0E0,0E0,0E0,0E0,0E0,0E0,0E0,0E0,0E0,0E0,0E0,0E0,0E0,0E0,0E0,0E0],"parents":[2147483647,0,0,1,1,2,2,3,3,4,4,5,5,6,6,8,8,9,9,10,10,11,11,12,12,13,13,14,14,15,15,17,17,18,18,20,20,21,21,22,22,24,24,25,25,26,26,27,27,28,28,30,30,34,34,35,35,37,37,38,38,40,40,41,41,43,43,45,45,46,46,48,48,50,50],"right_children":[2,4,6,8,10,12,14,-1,16,18,20,22,24,26,28,30,-1,32,34,-1,36,38,40,-1,42,44,46,48,50,-1,52,-1,-1,-1,54,56,-1,58,60,-1,62,64,-1,66,-1,68,70,-1,72,-1,74,-1,-1,-1,-1,-1,-1,-1,-1,-1,-1,-1,-1,-1,-1,-1,-1,-1,-1,-1,-1,-1,-1,-1,-1],"split_conditions":[-1.8787968E0,-1.7797948E0,1.6580755E0,-5.824499E-1,2.2538888E0,6.2086654E-1,2.255348E-3,-7.349521E-2,-1.771138E-1,-2.3469388E0,-1.6926599E-1,1.0758852E0,3.3375227E-1,3.3160433E-1,-1.5426998E0,-1.6434549E0,-7.465724E-2,3.781411E-1,1.7158726E0,-8.519416E-2,1.8502636E0,-3.9426023E-1,1.5804727E-1,-7.7010415E-2,-4.4466236E-1,1.054077E0,1.6601436E0,9.099517E-2,1.1099938E0,-8.104658E-2,-4.9456975E-1,7.695197E-2,-6.0964864E-2,-7.94809E-2,1.7262776E0,-5.1631445E-1,-8.072954E-2,-8.030017E-1,8.987995E-1,-7.800046E-2,-5.0463444E-1,-3.032914E0,-7.823515E-2,1.6824583E0,-7.955167E-2,1.9286298E0,-1.4491728E-1,-7.7383235E-2,-7.578551E-1,-7.6335125E-2,1.1234398E0,-7.319048E-2,7.484612E-2,7.0786156E-2,-7.758091E-2,-7.0867576E-2,7.749837E-2,-6.0132965E-3,-6.5756485E-2,-7.601939E-2,-5.2202057E-2,5.6403704E-2,-3.6043275E-2,-7.480895E-2,7.8275196E-2,6.614267E-2,-8.332712E-2,-7.819222E-2,4.7007486E-2,7.124826E-2,-7.8730516E-2,-7.856768E-2,7.0176095E-2,7.819264E-2,-7.712068E-2],"split_indices":[14,10,4,4,4,27,8,0,3,7,21,7,4,10,19,24,0,10,0,0,17,24,15,0,6,14,10,17,11,0,11,0,0,0,0,11,0,14,22,0,26,1,0,7,0,1,18,0,18,0,11,0,0,0,0,0,0,0,0,0,0,0,0,0,0,0,0,0,0,0,0,0,0,0,0],"split_type":[0,0,0,0,0,0,0,0,0,0,0,0,0,0,0,0,0,0,0,0,0,0,0,0,0,0,0,0,0,0,0,0,0,0,0,0,0,0,0,0,0,0,0,0,0,0,0,0,0,0,0,0,0,0,0,0,0,0,0,0,0,0,0,0,0,0,0,0,0,0,0,0,0,0,0],"sum_hessian":[7.9787945E4,3.485351E4,4.493443E4,3.2120809E4,2.7327017E3,3.8428684E4,6.505747E3,9.863445E0,3.2110945E4,1.1377147E3,1.5949869E3,3.738287E4,1.0458142E3,3.7506636E3,2.7550837E3,3.21058E4,5.1446404E0,2.4028969E2,8.9742505E2,3.8711586E1,1.5562754E3,3.414029E4,3.242582E3,4.3282492E2,6.129893E2,2.3342117E3,1.4164518E3,6.3880414E2,2.1162795E3,3.7127542E0,3.2102088E4,2.3663933E2,3.6503494E0,7.2358734E2,1.7383774E2,1.5487341E3,7.541182E0,8.338169E3,2.580212E4,1.5691815E3,1.6734005E3,5.4161896E2,7.137041E1,2.2197627E3,1.14448906E2,7.789432E2,6.375086E2,1.837633E2,4.5504083E2,1.7425715E3,3.7370798E2,3.7193456E0,3.209837E4,1.2416043E2,4.9677303E1,4.31702E0,1.5444171E3,1.2360673E3,7.102102E3,2.3756469E4,2.045649E3,6.72074E2,1.00132654E3,3.2892525E1,5.087264E2,2.1450208E3,7.474212E1,6.1227E2,1.6667319E2,5.4071747E2,9.679113E1,5.932458E1,3.9571625E2,1.355176E2,2.3819037E2],"tree_param":{"num_deleted":"0","num_feature":"31","num_nodes":"75","size_leaf_vector":"1"}},{"base_weights":[-4.925779E-4,1.3914214E0,-1.1244206E0,-7.353702E-2,1.4099268E0,-1.2913944E0,-8.3728254E-2,-7.6823436E-2,1.4178139E0,-4.853681E-1,-1.3581353E0,6.80067E-1,-9.5704377E-1,1.423352E0,-7.5508475E-2,-7.4805036E-2,3.702598E-1,-1.3688734E0,5.180861E-1,-8.9797115E-1,1.0366812E0,2.298483E-1,-1.3080795E0,1.454076E0,9.7331905E-1,9.348131E-1,-7.467547E-2,-1.3898519E0,-4.8559558E-1,-7.954153E-2,1.5996428E0,1.4502841E0,-7.6489285E-2,1.1681907E0,-8.10135E-2,-7.549924E-2,9.905439E-1,-7.461153E-2,-4.2940062E-1,-7.515923E-2,7.27718E-2,-8.378818E-2,6.2012196E-2,-7.540124E-2,6.1936E-2,-6.0748108E-2,-7.421594E-2,-7.83092E-2,5.889493E-2,8.5208945E-2,-6.782494E-2,-6.7239515E-2,7.833182E-2,6.111386E-2,-8.021584E-2,-7.6225325E-2,6.7003764E-2,7.572847E-2,-7.531681E-2],"categories":[],"categories_nodes":[],"categories_segments":[],"categories_sizes":[],"default_left":[0,0,0,0,0,0,0,0,0,0,0,0,0,0,0,0,0,0,0,0,0,0,0,0,0,0,0,0,0,0,0,0,0,0,0,0,0,0,0,0,0,0,0,0,0,0,0,0,0,0,0,0,0,0,0,0,0,0,0],"id":9,"left_children":[1,3,5,-1,7,9,11,-1,13,15,17,19,21,23,-1,-1,25,27,29,31,33,35,37,39,41,43,-1,45,47,-1,49,51,-1,53,-1,-1,55,-1,57,-1,-1,-1,-1,-1,-1,-1,-1,-1,-1,-1,-1,-1,-1,-1,-1,-1,-1,-1,-1],"loss_changes":[1.22890195E5,1.8607812E3,7.551957E3,0E0,8.1246094E2,2.0140469E3,4.0095205E3,0E0,5.660547E2,2.4786682E3,6.9753516E2,1.8054528E3,1.1687227E3,4.7852344E2,0E0,0E0,1.6350582E3,6.3658594E2,4.531355E2,8.7996716E2,9.159617E2,8.497921E2,3.4958398E2,1.3283594E2,1.5727642E3,8.870044E2,0E0,5.531758E2,1.4387941E3,0E0,4.2818268E1,4.306494E1,0E0,3.758286E2,0E0,0E0,3.9462033E2,0E0,7.903334E2,0E0,0E0,0E0,0E0,0E0,0E0,0E0,0E0,0E0,0E0,0E0,0E0,0E0,0E0,0E0,0E0,0E0,0E0,0E0,0E0],"parents":[2147483647,0,0,1,1,2,2,4,4,5,5,6,6,8,8,9,9,10,10,11,11,12,12,13,13,16,16,17,17,18,18,19,19,20,20,21,21,22,22,23,23,24,24,25,25,27,27,28,28,30,30,31,31,33,33,36,36,38,38],"right_children":[2,4,6,-1,8,10,12,-1,14,16,18,20,22,24,-1,-1,26,28,30,32,34,36,38,40,42,44,-1,46,48,-1,50,52,-1,54,-1,-1,56,-1,58,-1,-1,-1,-1,-1,-1,-1,-1,-1,-1,-1,-1,-1,-1,-1,-1,-1,-1,-1,-1],"split_conditions":[-1.8787968E0,-5.824499E-1,1.6978945E0,-7.353702E-2,-4.167066E-1,-4.9577323E-1,-6.661768E-2,-7.6823436E-2,1.9562675E0,4.355091E-2,3.6241424E0,2.8560346E-1,-1.5426998E0,3.266857E-1,-7.5508475E-2,-7.4805036E-2,5.8881273E-3,7.710452E-1,-2.0048213E0,-2.07635E0,1.2456801E0,9.7425036E-2,1.1099938E0,-1.2689805E0,3.050098E-1,2.6537538E-2,-7.467547E-2,-1.1912004E-1,1.1655015E0,-7.954153E-2,-1.3692291E0,5.40127E-1,-7.6489285E-2,7.0108604E-1,-8.10135E-2,-7.549924E-2,-7.578551E-1,-7.461153E-2,1.1234398E0,-7.515923E-2,7.27718E-2,-8.378818E-2,6.2012196E-2,-7.540124E-2,6.1936E-2,-6.0748108E-2,-7.421594E-2,-7.83092E-2,5.889493E-2,8.5208945E-2,-6.782494E-2,-6.7239515E-2,7.833182E-2,6.111386E-2,-8.021584E-2,-7.6225325E-2,6.7003764E-2,7.572847E-2,-7.531681E-2],"split_indices":[14,4,4,0,11,20,8,0,1,4,20,30,19,7,0,0,8,23,1,27,30,17,11,24,30,27,0,23,11,0,11,24,0,25,0,0,18,0,11,0,0,0,0,0,0,0,0,0,0,0,0,0,0,0,0,0,0,0,0],"split_type":[0,0,0,0,0,0,0,0,0,0,0,0,0,0,0,0,0,0,0,0,0,0,0,0,0,0,0,0,0,0,0,0,0,0,0,0,0,0,0,0,0,0,0,0,0,0,0,0,0,0,0,0,0,0,0,0,0,0,0],"sum_hessian":[7.855163E4,3.5092074E4,4.345956E4,2.2492601E2,3.486715E4,3.745057E4,6.00899E3,9.256786E1,3.4774582E4,2.8644983E3,3.458607E4,3.2056094E3,2.803381E3,3.470944E4,6.513776E1,1.3128783E3,1.55162E3,3.4389523E4,1.9654842E2,5.906096E2,2.6149998E3,6.3995734E2,2.1634236E3,3.2489154E4,2.2202878E3,1.1912711E3,3.6034885E2,3.359113E4,7.983922E2,6.646944E1,1.3007898E2,1.2494246E2,4.6566718E2,2.4922048E3,1.22794945E2,1.9438428E2,4.4557306E2,1.7880011E3,3.7542252E2,1.4425094E1,3.247473E4,2.0275706E2,2.0175306E3,1.313669E2,1.0599042E3,1.1785697E4,2.1805434E4,4.8402994E2,3.143623E2,1.26045235E2,4.0337477E0,4.5712667E0,1.2037119E2,2.4450654E3,4.713942E1,5.3957882E1,3.9161517E2,1.3369112E2,2.4173141E2],"tree_param":{"num_deleted":"0","num_feature":"31","num_nodes":"59","size_leaf_vector":"1"}},{"base_weights":[1.3839828E-2,1.3364624E0,-1.0809948E0,-7.3163286E-2,1.3674581E0,-1.2078584E0,-2.425079E-1,1.3845347E0,-7.366121E-2,-4.5500043E-1,-1.2694852E0,4.6451154E-1,-1.0316268E0,1.3925285E0,-7.423757E-2,-7.297628E-2,3.6502695E-1,-1.3312356E0,-6.291473E-1,8.482786E-1,-9.1425276E-1,-4.1087393E-2,-1.2911247E0,1.4292352E0,9.907884E-1,9.0135205E-1,-7.282866E-2,-9.964178E-1,-1.4295152E0,-7.4125364E-2,1.2253757E-1,1.2660877E0,-3.0788597E-1,8.6018425E-1,-1.5049787E0,-7.333011E-2,1.2034467E0,-7.318745E-2,9.3157023E-1,-7.865389E-2,7.149931E-2,4.4266833E-3,7.0353195E-2,5.8765758E-2,-7.5629376E-2,1.8257415E-2,-6.394603E-2,-4.245774E-2,-7.252299E-2,4.9069297E-2,-4.483841E-2,6.9276474E-2,-7.6445915E-2,4.179169E-2,-7.9239E-2,7.7313624E-2,-7.253146E-2,-7.242083E-2,-7.9520606E-2,-7.68573E-2,7.4613556E-2,7.5662486E-2,-7.227536E-2],"categories":[],"categories_nodes":[],"categories_segments":[],"categories_sizes":[],"default_left":[0,0,0,0,0,0,0,0,0,0,0,0,0,0,0,0,0,0,0,0,0,0,0,0,0,0,0,0,0,0,0,0,0,0,0,0,0,0,0,0,0,0,0,0,0,0,0,0,0,0,0,0,0,0,0,0,0,0,0,0,0,0,0],"id":10,"left_children":[1,3,5,-1,7,9,11,13,-1,15,17,19,21,23,-1,-1,25,27,29,31,33,35,37,39,41,43,-1,45,47,-1,49,51,53,55,57,-1,59,-1,61,-1,-1,-1,-1,-1,-1,-1,-1,-1,-1,-1,-1,-1,-1,-1,-1,-1,-1,-1,-1,-1,-1,-1,-1],"loss_changes":[1.1175373E5,3.0350938E3,4.4911797E3,0E0,1.6789883E3,1.7009766E3,3.0970337E3,7.902422E2,0E0,2.2876182E3,1.3395625E3,1.5500759E3,6.741975E2,5.0392188E2,0E0,0E0,1.4955037E3,1.01590625E3,1.9138998E3,1.107082E3,6.700741E2,9.6966016E2,7.988799E2,7.303125E1,1.078637E3,7.8357367E2,0E0,2.700287E3,2.8926562E2,0E0,1.3902848E3,5.639946E2,8.906452E2,2.5589418E2,1.1230469E-2,0E0,2.3328687E2,0E0,2.1015303E2,0E0,0E0,0E0,0E0,0E0,0E0,0E0,0E0,0E0,0E0,0E0,0E0,0E0,0E0,0E0,0E0,0E0,0E0,0E0,0E0,0E0,0E0,0E0,0E0],"parents":[2147483647,0,0,1,1,2,2,4,4,5,5,6,6,7,7,9,9,10,10,11,11,12,12,13,13,16,16,17,17,18,18,19,19,20,20,21,21,22,22,23,23,24,24,25,25,27,27,28,28,30,30,31,31,32,32,33,33,34,34,36,36,38,38],"right_children":[2,4,6,-1,8,10,12,14,-1,16,18,20,22,24,-1,-1,26,28,30,32,34,36,38,40,42,44,-1,46,48,-1,50,52,54,56,58,-1,60,-1,62,-1,-1,-1,-1,-1,-1,-1,-1,-1,-1,-1,-1,-1,-1,-1,-1,-1,-1,-1,-1,-1,-1,-1,-1],"split_conditions":[-1.6295556E0,-4.7725138E-1,1.6580755E0,-7.3163286E-2,3.177769E-1,-4.9577323E-1,-4.5306566E-1,1.1131743E0,-7.366121E-2,4.355091E-2,1.0758852E0,8.547181E-2,-3.5426798E-1,-1.9062351E0,-7.423757E-2,-7.297628E-2,5.8881273E-3,-4.3227682E-1,1.5804727E-1,2.7795333E-1,-2.4999175E0,9.2507714E-1,2.0320888E0,3.373822E-3,1.8916794E0,2.8870797E-1,-7.282866E-2,-8.030017E-1,-1.4524986E0,-7.4125364E-2,-5.166052E-1,1.2223119E0,-2.7807565E0,-6.859373E-2,2.8527126E-1,-7.333011E-2,3.666525E-1,-7.318745E-2,-1.1869948E0,-7.865389E-2,7.149931E-2,4.4266833E-3,7.0353195E-2,5.8765758E-2,-7.5629376E-2,1.8257415E-2,-6.394603E-2,-4.245774E-2,-7.252299E-2,4.9069297E-2,-4.483841E-2,6.9276474E-2,-7.6445915E-2,4.179169E-2,-7.9239E-2,7.7313624E-2,-7.253146E-2,-7.242083E-2,-7.9520606E-2,-7.68573E-2,7.4613556E-2,7.5662486E-2,-7.227536E-2],"split_indices":[14,4,4,0,12,20,12,10,0,4,7,8,29,12,0,0,8,24,15,14,15,12,19,30,4,12,0,14,10,0,13,3,12,28,30,0,25,0,13,0,0,0,0,0,0,0,0,0,0,0,0,0,0,0,0,0,0,0,0,0,0,0,0],"split_type":[0,0,0,0,0,0,0,0,0,0,0,0,0,0,0,0,0,0,0,0,0,0,0,0,0,0,0,0,0,0,0,0,0,0,0,0,0,0,0,0,0,0,0,0,0,0,0,0,0,0,0,0,0,0,0,0,0,0,0,0,0,0,0],"sum_hessian":[7.717318E4,3.495062E4,4.222256E4,3.8219553E2,3.4568426E4,3.6673402E4,5.549153E3,3.4362367E4,2.0605515E2,2.775472E3,3.3897934E4,2.9270461E3,2.6221067E3,3.4267414E4,9.4953575E1,1.2470583E3,1.5284135E3,3.0915543E4,2.982389E3,2.290023E3,6.3702313E2,5.445691E2,2.0775376E3,3.1396209E4,2.8712068E3,1.1811564E3,3.4725708E2,7.017968E3,2.3897576E4,1.3962761E3,1.5861128E3,1.6820698E3,6.079531E2,1.5898972E2,4.7803345E2,2.5374544E2,2.9082367E2,1.9281317E3,1.4940576E2,7.326739E0,3.1388883E4,9.068564E2,1.9643503E3,1.0612284E3,1.19927925E2,1.2058578E3,5.81211E3,8.338374E2,2.3063738E4,8.6083026E2,7.252826E2,1.6136178E3,6.845201E1,3.208826E2,2.8707056E2,1.2284692E2,3.61428E1,2.984171E2,1.7961633E2,2.7315037E1,2.635086E2,1.2032516E2,2.9080606E1],"tree_param":{"num_deleted":"0","num_feature":"31","num_nodes":"63","size_leaf_vector":"1"}},{"base_weights":[1.0778094E-2,1.3291309E0,-1.0219963E0,1.396851E0,4.9120107E-1,3.509395E-1,-1.0841182E0,-8.7427184E-2,1.3977923E0,-6.240503E-1,9.7873837E-1,1.308603E0,-6.08504E-1,3.123421E-1,-1.1336441E0,-7.655011E-2,1.3984576E0,4.7268555E-1,-1.5335667E0,-7.605758E-2,1.1125082E0,1.5616252E0,-7.343786E-2,5.6101E-1,-7.2336376E-2,1.0304964E0,-7.234317E-2,-7.543556E-1,-1.2471447E0,-6.802373E-2,1.3989635E0,-7.627547E-2,1.1871462E0,-7.995104E-2,-7.041096E-2,1.2088987E0,-7.09486E-2,-6.887268E-2,1.6228142E0,-7.3028006E-2,1.4103168E0,-7.669895E-2,1.2796649E0,2.0137115E-1,-1.0566418E0,-1.3164445E0,-3.5166067E-1,6.996741E-2,-6.6812545E-2,7.26066E-2,-7.285358E-2,6.3674316E-2,-7.1039684E-2,1.1984998E-1,7.392992E-2,7.892204E-2,-6.9196776E-2,7.08672E-2,-7.31033E-2,4.0901598E-2,-7.349313E-2,-5.585118E-2,8.089089E-2,-2.3008777E-2,-6.828825E-2,1.670601E-2,-7.316207E-2],"categories":[],"categories_nodes":[],"categories_segments":[],"categories_sizes":[],"default_left":[0,0,0,0,0,0,0,0,0,0,0,0,0,0,0,0,0,0,0,0,0,0,0,0,0,0,0,0,0,0,0,0,0,0,0,0,0,0,0,0,0,0,0,0,0,0,0,0,0,0,0,0,0,0,0,0,0,0,0,0,0,0,0,0,0,0,0],"id":11,"left_children":[1,3,5,7,9,11,13,-1,15,17,19,21,23,25,27,-1,29,31,33,-1,35,37,-1,39,-1,41,-1,43,45,-1,47,-1,49,-1,-1,51,-1,-1,53,-1,55,-1,57,59,61,63,65,-1,-1,-1,-1,-1,-1,-1,-1,-1,-1,-1,-1,-1,-1,-1,-1,-1,-1,-1,-1],"loss_changes":[1.01992586E5,1.8664922E3,3.5828555E3,9.259375E1,1.339271E3,1.6721796E3,2.779625E3,0E0,6.1441406E1,7.4835693E2,5.7470447E2,6.422626E2,8.9227136E2,1.7413735E3,1.6697812E3,0E0,4.4367188E1,4.8798575E2,1.1116943E0,0E0,3.987323E2,1.5242468E2,0E0,6.551396E2,0E0,6.272278E2,0E0,2.5833623E3,1.8531328E3,0E0,3.389453E1,0E0,1.7827762E2,0E0,0E0,2.6811157E2,0E0,0E0,8.784766E1,0E0,1.282528E2,0E0,3.3894092E2,2.2162546E3,1.0987852E3,1.1701758E3,1.6370353E3,0E0,0E0,0E0,0E0,0E0,0E0,0E0,0E0,0E0,0E0,0E0,0E0,0E0,0E0,0E0,0E0,0E0,0E0,0E0,0E0],"parents":[2147483647,0,0,1,1,2,2,3,3,4,4,5,5,6,6,8,8,9,9,10,10,11,11,12,12,13,13,14,14,16,16,17,17,18,18,20,20,21,21,23,23,25,25,27,27,28,28,30,30,32,32,35,35,38,38,40,40,42,42,43,43,44,44,45,45,46,46],"right_children":[2,4,6,8,10,12,14,-1,16,18,20,22,24,26,28,-1,30,32,34,-1,36,38,-1,40,-1,42,-1,44,46,-1,48,-1,50,-1,-1,52,-1,-1,54,-1,56,-1,58,60,62,64,66,-1,-1,-1,-1,-1,-1,-1,-1,-1,-1,-1,-1,-1,-1,-1,-1,-1,-1,-1,-1],"split_conditions":[-1.8787968E0,-1.7797948E0,-8.3191764E-1,-1.2067139E0,-5.072303E-2,-8.4349626E-1,-9.5822245E-1,-8.7427184E-2,3.373822E-3,-1.3673247E-1,-3.8618553E-1,-3.1663486E-1,-3.5270116E-1,-2.3578571E-1,-4.4740072E-1,-7.655011E-2,-4.9456975E-1,1.826221E0,9.994564E-1,-7.605758E-2,1.9286298E0,7.120697E-1,-7.343786E-2,2.6455417E-1,-7.2336376E-2,-1.05777256E-1,-7.234317E-2,-7.1681017E-1,1.2678065E0,-6.802373E-2,3.177769E-1,-7.627547E-2,3.1796402E-1,-7.995104E-2,-7.041096E-2,2.5876197E-1,-7.09486E-2,-6.887268E-2,7.3483884E-1,-7.3028006E-2,1.0445158E0,-7.669895E-2,7.23904E-2,-1.9661474E-1,2.2285898E0,-1.491809E0,-3.8093157E-2,6.996741E-2,-6.6812545E-2,7.26066E-2,-7.285358E-2,6.3674316E-2,-7.1039684E-2,1.1984998E-1,7.392992E-2,7.892204E-2,-6.9196776E-2,7.08672E-2,-7.31033E-2,4.0901598E-2,-7.349313E-2,-5.585118E-2,8.089089E-2,-2.3008777E-2,-6.828825E-2,1.670601E-2,-7.316207E-2],"split_indices":[14,10,21,24,21,12,20,0,30,20,24,9,29,12,14,0,11,11,10,0,1,6,0,10,0,28,0,19,7,0,12,0,7,0,0,12,0,0,6,0,2,0,13,6,11,19,2,0,0,0,0,0,0,0,0,0,0,0,0,0,0,0,0,0,0,0,0],"split_type":[0,0,0,0,0,0,0,0,0,0,0,0,0,0,0,0,0,0,0,0,0,0,0,0,0,0,0,0,0,0,0,0,0,0,0,0,0,0,0,0,0,0,0,0,0,0,0,0,0,0,0,0,0,0,0,0,0,0,0,0,0,0,0,0,0,0,0],"sum_hessian":[7.490658E4,3.2903918E4,4.200266E4,3.0442908E4,2.4610095E3,1.818046E3,4.0184613E4,8.553315E0,3.0434355E4,7.4850635E2,1.7125033E3,9.096849E2,9.0836115E2,1.3761638E3,3.8808453E4,6.389115E0,3.0427967E4,3.3954636E2,4.0896E2,8.645531E1,1.626048E3,8.3413184E2,7.555307E1,3.7937573E2,5.289854E2,9.77526E2,3.986378E2,8.940234E3,2.9868217E4,5.0853453E0,3.042288E4,8.913091E1,2.5041544E2,2.6094354E2,1.4801646E2,1.5669077E3,5.9140266E1,1.6572989E1,8.1755884E2,1.1201983E2,2.673559E2,8.611035E1,8.9141565E2,2.1483167E3,6.7919175E3,2.7722365E4,2.1458513E3,3.041909E4,3.7912142E0,2.2801604E2,2.2399408E1,1.529849E3,3.705872E1,1.2592765E2,6.9163116E2,2.5259305E2,1.4762848E1,8.492525E2,4.2163166E1,1.5696494E3,5.7866724E2,6.6425303E3,1.4938725E2,1.5103866E3,2.6211979E4,1.3275371E3,8.183141E2],"tree_param":{"num_deleted":"0","num_feature":"31","num_nodes":"67","size_leaf_vector":"1"}},{"base_weights":[2.196251E-2,1.3151361E0,-9.071206E-1,-7.200866E-2,1.3563412E0,-1.0823067E0,2.951434E-1,-7.308236E-2,1.3628856E0,5.08259E-1,-1.1269981E0,1.0213149E0,-3.8334474E-1,1.3645085E0,-7.2859846E-2,9.5267224E-1,-7.231461E-2,-1.2415375E0,-8.09383E-1,-7.30445E-2,1.1148181E0,6.1443627E-1,-1.0118314E0,-7.360135E-2,1.3652502E0,-7.296168E-2,1.2109852E0,-1.2967378E0,-4.4728798E-1,-9.2902553E-1,4.9385148E-1,1.1635127E0,-7.532221E-2,9.284599E-1,-7.299655E-2,3.127445E-1,-7.1055196E-2,-7.4618004E-2,6.829395E-2,-7.08177E-2,6.922777E-2,-1.0625311E-2,-6.659377E-2,2.7130732E-2,-7.114931E-2,-6.1390486E-2,-2.4527717E-2,8.169797E-2,-7.367375E-2,6.0419876E-2,-7.589753E-2,-7.1137115E-2,5.9060734E-2,6.472541E-2,-7.103693E-2],"categories":[],"categories_nodes":[],"categories_segments":[],"categories_sizes":[],"default_left":[0,0,0,0,0,0,0,0,0,0,0,0,0,0,0,0,0,0,0,0,0,0,0,0,0,0,0,0,0,0,0,0,0,0,0,0,0,0,0,0,0,0,0,0,0,0,0,0,0,0,0,0,0,0,0],"id":12,"left_children":[1,3,5,-1,7,9,11,-1,13,15,17,19,21,23,-1,25,-1,27,29,-1,31,33,35,-1,37,-1,39,41,43,45,47,49,-1,51,-1,53,-1,-1,-1,-1,-1,-1,-1,-1,-1,-1,-1,-1,-1,-1,-1,-1,-1,-1,-1],"loss_changes":[8.824523E4,3.4882344E3,9.002383E3,0E0,5.5996094E2,2.6523867E3,2.6790098E3,0E0,1.4014453E2,8.8758167E2,1.3190586E3,6.111792E2,1.763576E3,6.5484375E1,0E0,5.200229E2,0E0,1.1685625E3,1.5004619E3,0E0,3.248811E2,7.094812E2,9.3571545E2,0E0,5.6226562E1,0E0,3.4485364E2,9.496133E2,1.6759619E3,1.1537944E3,1.818237E3,3.0103296E2,0E0,5.6313336E2,0E0,6.9630237E2,0E0,0E0,0E0,0E0,0E0,0E0,0E0,0E0,0E0,0E0,0E0,0E0,0E0,0E0,0E0,0E0,0E0,0E0,0E0],"parents":[2147483647,0,0,1,1,2,2,4,4,5,5,6,6,8,8,9,9,10,10,11,11,12,12,13,13,15,15,17,17,18,18,20,20,21,21,22,22,24,24,26,26,27,27,28,28,29,29,30,30,31,31,33,33,35,35],"right_children":[2,4,6,-1,8,10,12,-1,14,16,18,20,22,24,-1,26,-1,28,30,-1,32,34,36,-1,38,-1,40,42,44,46,48,50,-1,52,-1,54,-1,-1,-1,-1,-1,-1,-1,-1,-1,-1,-1,-1,-1,-1,-1,-1,-1,-1,-1],"split_conditions":[-1.7797948E0,-5.824499E-1,2.2538888E0,-7.200866E-2,-5.389189E-1,-1.3738276E0,-2.647834E-1,-7.308236E-2,1.3000802E0,-1.5856707E-1,7.554212E-1,-1.1370739E0,3.3160433E-1,3.373822E-3,-7.2859846E-2,-9.0940684E-2,-7.231461E-2,1.1891543E0,5.75463E-1,-7.30445E-2,3.5358772E0,2.574192E-1,-6.833755E-1,-7.360135E-2,-1.6434549E0,-7.296168E-2,2.8659937E-1,-1.4524986E0,-4.8285896E-1,1.2237638E-1,-1.5058472E0,2.2977905E0,-7.532221E-2,-1.1450017E-1,-7.299655E-2,-1.032418E0,-7.1055196E-2,-7.4618004E-2,6.829395E-2,-7.08177E-2,6.922777E-2,-1.0625311E-2,-6.659377E-2,2.7130732E-2,-7.114931E-2,-6.1390486E-2,-2.4527717E-2,8.169797E-2,-7.367375E-2,6.0419876E-2,-7.589753E-2,-7.1137115E-2,5.9060734E-2,6.472541E-2,-7.103693E-2],"split_indices":[10,4,4,0,11,20,3,0,9,26,4,11,10,30,0,5,0,19,21,0,29,24,18,0,24,0,30,10,7,5,13,5,0,23,0,0,0,0,0,0,0,0,0,0,0,0,0,0,0,0,0,0,0,0,0],"split_type":[0,0,0,0,0,0,0,0,0,0,0,0,0,0,0,0,0,0,0,0,0,0,0,0,0,0,0,0,0,0,0,0,0,0,0,0,0,0,0,0,0,0,0,0,0,0,0,0,0,0,0,0,0,0,0],"sum_hessian":[7.3445984E4,3.0706191E4,4.2739797E4,4.519391E2,3.0254252E4,3.730417E4,5.4356245E3,6.9583084E1,3.018467E4,1.0192335E3,3.6284938E4,2.6253079E3,2.810317E3,3.0167824E4,1.6845594E1,8.30836E2,1.8839754E2,2.666574E4,9.619195E3,9.477288E1,2.530535E3,1.0860824E3,1.7242344E3,7.3678813E0,3.0160455E4,7.9924065E1,7.509119E2,2.4932314E4,1.7334269E3,8.810629E3,8.085667E2,2.4849292E3,4.5605804E1,9.43765E2,1.4231743E2,4.070588E2,1.3171757E3,6.112374E0,3.0154344E4,4.608972E1,7.048222E2,7.8286115E2,2.4149453E4,8.606705E2,8.7275635E2,5.2389146E3,3.571714E3,5.1201337E2,2.9655328E2,2.4445593E3,4.0369972E1,9.115787E1,8.526071E2,2.6003842E2,1.4702037E2],"tree_param":{"num_deleted":"0","num_feature":"31","num_nodes":"55","size_leaf_vector":"1"}},{"base_weights":[7.2304057E-3,1.2759784E0,-9.645376E-1,1.3437419E0,3.716672E-1,-1.1127664E0,-7.183475E-2,1.3449401E0,-1.1800577E-1,1.0490324E0,-1.0206542E0,-7.049044E-1,-1.2459174E0,-1.1946981E0,4.4640493E-1,-6.634419E-2,1.3458315E0,-6.9026425E-2,1.2244948E0,-1.4934769E0,8.2121885E-1,-3.687792E-1,-7.040763E-2,-1.2853963E0,4.811909E-1,1.8878187E-1,-6.9149844E-2,7.323151E-1,-7.0663475E-2,1.3464284E0,-7.757572E-2,1.3335174E0,-7.270568E-2,-1.5396858E0,-6.802472E-2,7.236448E-2,-7.350551E-2,-8.958959E-1,3.4508377E-1,-1.3327461E0,-4.1983977E-1,1.2290142E0,-7.719001E-2,-6.980449E-2,1.3582624E0,-4.9640536E-1,1.0001519E0,-7.086884E-2,6.7351736E-2,6.873944E-2,-7.636312E-2,-7.875331E-2,-6.8854645E-2,2.5870642E-2,-5.6166817E-2,5.5395793E-2,-3.049903E-2,-6.720233E-2,4.0306073E-2,-7.093704E-2,5.1866144E-2,7.7247046E-2,-7.750436E-2,7.571202E-2,-6.031241E-2,4.8138186E-2,-7.373433E-2,-7.206619E-2,5.34575E-2],"categories":[],"categories_nodes":[],"categories_segments":[],"categories_sizes":[],"default_left":[0,0,0,0,0,0,0,0,0,0,0,0,0,0,0,0,0,0,0,0,0,0,0,0,0,0,0,0,0,0,0,0,0,0,0,0,0,0,0,0,0,0,0,0,0,0,0,0,0,0,0,0,0,0,0,0,0,0,0,0,0,0,0,0,0,0,0,0,0],"id":13,"left_children":[1,3,5,7,9,11,13,15,-1,17,19,21,23,25,27,-1,29,-1,31,33,35,37,-1,39,41,43,-1,45,-1,47,-1,49,-1,51,-1,-1,-1,53,55,57,59,61,-1,-1,63,65,67,-1,-1,-1,-1,-1,-1,-1,-1,-1,-1,-1,-1,-1,-1,-1,-1,-1,-1,-1,-1,-1,-1],"loss_changes":[8.738169E4,1.8831992E3,5.3105938E3,1.3008203E2,2.0233232E3,1.8683047E3,3.326814E3,6.986719E1,0E0,6.168225E2,6.128201E2,2.0023765E3,1.76975E3,4.7056836E2,2.0809224E3,0E0,5.151172E1,0E0,3.9509888E2,1.3414307E0,2.0884135E2,2.1581028E3,0E0,1.0390781E3,8.81068E2,4.0439792E2,0E0,1.1165172E3,0E0,4.9785156E1,0E0,1.5490063E2,0E0,1.7456055E-1,0E0,0E0,0E0,1.0610059E3,1.7757673E3,5.8239453E2,1.9186866E3,3.7514172E2,0E0,0E0,5.2012375E1,8.68727E2,4.7062402E2,0E0,0E0,0E0,0E0,0E0,0E0,0E0,0E0,0E0,0E0,0E0,0E0,0E0,0E0,0E0,0E0,0E0,0E0,0E0,0E0,0E0,0E0],"parents":[2147483647,0,0,1,1,2,2,3,3,4,4,5,5,6,6,7,7,9,9,10,10,11,11,12,12,13,13,14,14,16,16,18,18,19,19,20,20,21,21,23,23,24,24,25,25,27,27,29,29,31,31,33,33,37,37,38,38,39,39,40,40,41,41,44,44,45,45,46,46],"right_children":[2,4,6,8,10,12,14,16,-1,18,20,22,24,26,28,-1,30,-1,32,34,36,38,-1,40,42,44,-1,46,-1,48,-1,50,-1,52,-1,-1,-1,54,56,58,60,62,-1,-1,64,66,68,-1,-1,-1,-1,-1,-1,-1,-1,-1,-1,-1,-1,-1,-1,-1,-1,-1,-1,-1,-1,-1,-1],"split_conditions":[-1.8787968E0,-1.7797948E0,1.6580755E0,-2.0727634E0,4.8111558E-2,-4.2765895E-1,2.8527126E-1,-5.824499E-1,-1.1800577E-1,2.0986927E-1,7.2961336E-1,1.998552E-1,2.390347E0,-9.9763E-1,2.5007227E-1,-6.634419E-2,-1.771138E-1,-6.9026425E-2,-1.5107216E-1,1.1131743E0,5.722664E-1,2.52986E-1,-7.040763E-2,8.435239E-1,-6.4201343E-1,-1.01571E0,-6.9149844E-2,-1.1450017E-1,-7.0663475E-2,3.373822E-3,-7.757572E-2,4.1852945E-1,-7.270568E-2,3.177769E-1,-6.802472E-2,7.236448E-2,-7.350551E-2,-2.647834E-1,5.273484E-1,4.422857E0,7.4988925E-1,7.242564E-2,-7.719001E-2,-6.980449E-2,-2.0235324E0,-8.242236E-1,-1.2770973E0,-7.086884E-2,6.7351736E-2,6.873944E-2,-7.636312E-2,-7.875331E-2,-6.8854645E-2,2.5870642E-2,-5.6166817E-2,5.5395793E-2,-3.049903E-2,-6.720233E-2,4.0306073E-2,-7.093704E-2,5.1866144E-2,7.7247046E-2,-7.750436E-2,7.571202E-2,-6.031241E-2,4.8138186E-2,-7.373433E-2,-7.206619E-2,5.34575E-2],"split_indices":[14,10,4,14,7,14,30,4,0,4,29,0,7,24,8,0,3,0,12,10,30,18,0,20,11,24,0,23,0,30,0,8,0,12,0,0,0,3,18,5,22,23,0,0,12,14,11,0,0,0,0,0,0,0,0,0,0,0,0,0,0,0,0,0,0,0,0,0,0],"split_type":[0,0,0,0,0,0,0,0,0,0,0,0,0,0,0,0,0,0,0,0,0,0,0,0,0,0,0,0,0,0,0,0,0,0,0,0,0,0,0,0,0,0,0,0,0,0,0,0,0,0,0,0,0,0,0,0,0,0,0,0,0,0,0,0,0,0,0,0,0],"sum_hessian":[7.0871266E4,3.073851E4,4.0132754E4,2.8595271E4,2.1432383E3,3.4417633E4,5.7151196E3,2.858666E4,8.611246E0,1.441967E3,7.012713E2,8.472224E3,2.594541E4,1.8043506E3,3.910769E3,9.037745E0,2.8577623E4,9.66617E1,1.3453053E3,5.5817316E2,1.4309811E2,5.7334043E3,2.7388193E3,2.5365846E4,5.7956537E2,2.1616039E2,1.5881902E3,3.3901643E3,5.2060474E2,2.8572271E4,5.3508716E0,1.2931737E3,5.2131546E1,4.0638403E2,1.5178912E2,1.1267873E2,3.0419382E1,3.2979456E3,2.435459E3,2.404968E4,1.3161655E3,4.2354465E2,1.560207E2,9.169807E1,1.24462326E2,6.0658026E2,2.783584E3,5.7536783E0,2.8566518E4,1.2752949E3,1.7878763E1,3.2662366E2,7.9760376E1,4.56984E2,2.8409614E3,1.3539042E3,1.0815548E3,2.3923654E4,1.2602596E2,7.80886E2,5.3527954E2,3.8070984E2,4.28348E1,1.17712395E2,6.7499294E0,2.4345996E2,3.631203E2,7.595759E1,2.7076265E3],"tree_param":{"num_deleted":"0","num_feature":"31","num_nodes":"69","size_leaf_vector":"1"}},{"base_weights":[1.1014353E-3,1.2567203E0,-9.7981054E-1,1.3215673E0,5.091908E-1,-1.1104566E0,-1.5950423E-1,-6.485653E-2,1.3224844E0,-5.602646E-1,1.2793249E0,-1.1709037E0,-4.883395E-1,5.028734E-1,-9.515604E-1,-7.011485E-2,1.3231848E0,1.1540115E0,-1.0368469E0,-7.776736E-2,1.3534114E0,-7.721359E-1,-1.2885063E0,6.652511E-2,-6.917798E-2,-5.437272E-1,8.897014E-1,-1.2050008E0,9.207279E-1,1.323565E0,-6.8026416E-2,-7.320377E-2,6.755919E-2,-1.4333621E0,8.78135E-1,1.3697544E0,-7.69314E-2,-9.304021E-1,5.644746E-1,-1.318315E0,-2.892589E-1,-7.0666745E-2,5.520445E-1,1.0505491E0,-6.86568E-2,1.027321E0,-7.3717535E-2,-6.866421E-2,1.3533965E-2,-6.888363E-2,1.4332113E0,-6.3383326E-2,6.619691E-2,-6.8007976E-2,-7.415903E-2,-7.1195364E-2,7.106673E-2,-6.1983835E-2,6.887731E-2,-6.084442E-2,-1.4019812E-2,9.318057E-2,-6.840866E-2,-5.2339166E-2,-6.7046985E-2,5.781567E-2,-6.755604E-2,4.8582863E-2,-7.283039E-2,-6.8525665E-2,6.741123E-2,-1.4909095E-2,6.0327034E-2,-6.82554E-2,6.937001E-2,7.485534E-2,-6.269188E-2],"categories":[],"categories_nodes":[],"categories_segments":[],"categories_sizes":[],"default_left":[0,0,0,0,0,0,0,0,0,0,0,0,0,0,0,0,0,0,0,0,0,0,0,0,0,0,0,0,0,0,0,0,0,0,0,0,0,0,0,0,0,0,0,0,0,0,0,0,0,0,0,0,0,0,0,0,0,0,0,0,0,0,0,0,0,0,0,0,0,0,0,0,0,0,0,0,0],"id":14,"left_children":[1,3,5,7,9,11,13,-1,15,17,19,21,23,25,27,-1,29,31,33,-1,35,37,39,41,-1,43,45,47,49,51,-1,-1,-1,53,55,57,-1,59,61,63,65,-1,67,69,-1,71,-1,-1,73,-1,75,-1,-1,-1,-1,-1,-1,-1,-1,-1,-1,-1,-1,-1,-1,-1,-1,-1,-1,-1,-1,-1,-1,-1,-1,-1,-1],"loss_changes":[8.4475914E4,1.4575352E3,4.126496E3,6.81875E1,1.9797639E3,1.2485117E3,2.7765005E3,0E0,5.466797E1,8.236122E2,2.9553613E2,1.418707E3,1.4620859E3,1.1673491E3,1.1447351E3,0E0,3.0027344E1,1.15260956E2,5.9974493E2,0E0,6.64895E1,1.4595645E3,6.959453E2,1.3070127E3,0E0,1.0307434E3,6.862805E2,4.3539746E2,3.411034E2,2.8421875E1,0E0,0E0,0E0,3.6547852E-1,1.7187012E2,2.92583E1,0E0,1.1481333E3,1.8375427E3,1.3804688E2,1.042984E3,0E0,1.1557959E3,1.9423404E2,0E0,4.7299585E2,0E0,0E0,4.9175415E2,0E0,4.2380463E1,0E0,0E0,0E0,0E0,0E0,0E0,0E0,0E0,0E0,0E0,0E0,0E0,0E0,0E0,0E0,0E0,0E0,0E0,0E0,0E0,0E0,0E0,0E0,0E0,0E0,0E0],"parents":[2147483647,0,0,1,1,2,2,3,3,4,4,5,5,6,6,8,8,9,9,10,10,11,11,12,12,13,13,14,14,16,16,17,17,18,18,20,20,21,21,22,22,23,23,25,25,26,26,27,27,28,28,29,29,33,33,34,34,35,35,37,37,38,38,39,39,40,40,42,42,43,43,45,45,48,48,50,50],"right_children":[2,4,6,8,10,12,14,-1,16,18,20,22,24,26,28,-1,30,32,34,-1,36,38,40,42,-1,44,46,48,50,52,-1,-1,-1,54,56,58,-1,60,62,64,66,-1,68,70,-1,72,-1,-1,74,-1,76,-1,-1,-1,-1,-1,-1,-1,-1,-1,-1,-1,-1,-1,-1,-1,-1,-1,-1,-1,-1,-1,-1,-1,-1,-1,-1],"split_conditions":[-1.8787968E0,-1.7797948E0,1.6580755E0,-5.824499E-1,2.2538888E0,7.803142E-1,-4.5306566E-1,-6.485653E-2,3.373822E-3,-2.2066813E0,-1.6926599E-1,-4.6793887E-1,3.0262575E-2,2.8527126E-1,1.6235279E0,-7.011485E-2,3.177769E-1,2.3849672E-1,7.2961336E-1,-7.776736E-2,1.8502636E0,-5.012236E-1,1.4089365E0,-6.518774E-1,-6.917798E-2,-7.4418086E-1,2.5007227E-1,1.2233754E0,4.4592145E-1,-4.9456975E-1,-6.8026416E-2,-7.320377E-2,6.755919E-2,1.4089365E0,1.4933058E0,-5.1631445E-1,-7.69314E-2,4.4509366E-1,-5.5384326E-1,-8.572379E-1,1.4678857E0,-7.0666745E-2,3.5051522E-1,2.721984E-1,-6.86568E-2,-7.580864E-2,-7.3717535E-2,-6.866421E-2,1.0788374E0,-6.888363E-2,4.9881557E-1,-6.3383326E-2,6.619691E-2,-6.8007976E-2,-7.415903E-2,-7.1195364E-2,7.106673E-2,-6.1983835E-2,6.887731E-2,-6.084442E-2,-1.4019812E-2,9.318057E-2,-6.840866E-2,-5.2339166E-2,-6.7046985E-2,5.781567E-2,-6.755604E-2,4.8582863E-2,-7.283039E-2,-6.8525665E-2,6.741123E-2,-1.4909095E-2,6.0327034E-2,-6.82554E-2,6.937001E-2,7.485534E-2,-6.269188E-2],"split_indices":[14,10,4,4,4,29,12,0,30,12,21,14,12,30,17,0,12,21,29,0,17,14,17,9,0,18,8,12,0,11,0,0,0,17,1,11,0,25,16,17,17,0,16,22,0,23,0,0,1,0,0,0,0,0,0,0,0,0,0,0,0,0,0,0,0,0,0,0,0,0,0,0,0,0,0,0,0],"split_type":[0,0,0,0,0,0,0,0,0,0,0,0,0,0,0,0,0,0,0,0,0,0,0,0,0,0,0,0,0,0,0,0,0,0,0,0,0,0,0,0,0,0,0,0,0,0,0,0,0,0,0,0,0,0,0,0,0,0,0,0,0,0,0,0,0,0,0,0,0,0,0,0,0,0,0,0,0],"sum_hessian":[6.858551E4,3.0080549E4,3.850496E4,2.7678695E4,2.4018525E3,3.3214676E4,5.2902856E3,9.194291E0,2.7669502E4,1.00563654E3,1.3962161E3,3.0272416E4,2.9422612E3,2.8811848E3,2.4091008E3,6.5972714E0,2.7662904E4,2.1844913E2,7.8718744E2,3.5052647E1,1.3611635E3,6.8962188E3,2.3376197E4,1.8169973E3,1.125264E3,7.77413E2,2.1037717E3,2.1221892E3,2.8691162E2,2.7659492E4,3.411609E0,1.4849503E1,2.0359962E2,6.5236127E2,1.3482614E2,1.3540381E3,7.125305E0,6.166371E3,7.298476E2,2.2698744E4,6.774514E2,4.4839163E2,1.3686057E3,2.659471E2,5.114659E2,1.9885754E3,1.1519631E2,1.8645609E3,2.5762842E2,5.2002243E1,2.3490938E2,3.4930027E0,2.7656E4,2.756408E2,3.7672046E2,2.5430807E1,1.0939533E2,3.5604427E0,1.3504777E3,4.279385E3,1.8869863E3,4.364794E2,2.933682E2,1.7494755E3,2.094927E4,2.8685315E2,3.905983E2,1.1325328E3,2.3607283E2,2.8724016E1,2.372231E2,2.367699E2,1.7518055E3,1.2859389E2,1.2903453E2,2.2988576E2,5.023615E0],"tree_param":{"num_deleted":"0","num_feature":"31","num_nodes":"77","size_leaf_vector":"1"}},{"base_weights":[1.0005111E-2,1.2162391E0,-9.6536475E-1,-6.672248E-2,1.2421911E0,-1.0950913E0,-1.5391119E-1,1.2581178E0,-6.733849E-2,-3.489439E-1,-1.158505E0,9.9903935E-1,-6.297754E-1,-7.022132E-2,1.267649E0,-6.676519E-2,4.1213477E-1,-1.2082896E0,-5.4893696E-1,-7.063224E-2,1.2748628E0,-1.2147782E0,3.1426755E-1,1.2740672E0,-6.759157E-2,8.8345927E-1,-6.6600025E-2,-9.273879E-1,-1.3029932E0,3.393794E-1,-6.7742884E-2,1.3282183E0,-8.76403E-2,-1.3709815E0,5.178867E-2,8.23948E-1,-6.7274295E-2,6.476424E-2,3.9175637E-2,-6.912635E-2,5.688385E-2,-1.9490948E-2,-6.7287736E-2,-6.642091E-2,-4.5654323E-2,4.9440317E-2,-6.842246E-2,6.847907E-2,-7.0979916E-2,-6.6545926E-2,-7.103954E-2,6.818581E-2,-6.711724E-2,5.8526225E-2,-7.072603E-2],"categories":[],"categories_nodes":[],"categories_segments":[],"categories_sizes":[],"default_left":[0,0,0,0,0,0,0,0,0,0,0,0,0,0,0,0,0,0,0,0,0,0,0,0,0,0,0,0,0,0,0,0,0,0,0,0,0,0,0,0,0,0,0,0,0,0,0,0,0,0,0,0,0,0,0],"id":15,"left_children":[1,3,5,-1,7,9,11,13,-1,15,17,19,21,-1,23,-1,25,27,29,-1,31,33,35,37,-1,39,-1,41,43,45,-1,47,-1,49,51,53,-1,-1,-1,-1,-1,-1,-1,-1,-1,-1,-1,-1,-1,-1,-1,-1,-1,-1,-1],"loss_changes":[7.877284E4,1.9831719E3,3.8967734E3,0E0,1.223582E3,1.5097734E3,2.8007727E3,7.4921094E2,0E0,1.8784247E3,8.9203906E2,9.939158E2,1.9958688E3,0E0,4.951289E2,0E0,1.1625459E3,7.2223047E2,1.5918794E3,0E0,2.1861987E2,4.414673E2,1.1712214E3,3.0371094E2,0E0,6.4261145E2,0E0,1.5423296E3,2.003789E2,1.1750223E3,0E0,1.5155176E2,0E0,2.0725098E0,4.5159534E2,8.231186E2,0E0,0E0,0E0,0E0,0E0,0E0,0E0,0E0,0E0,0E0,0E0,0E0,0E0,0E0,0E0,0E0,0E0,0E0,0E0],"parents":[2147483647,0,0,1,1,2,2,4,4,5,5,6,6,7,7,9,9,10,10,11,11,12,12,14,14,16,16,17,17,18,18,20,20,21,21,22,22,23,23,25,25,27,27,28,28,29,29,31,31,33,33,34,34,35,35],"right_children":[2,4,6,-1,8,10,12,14,-1,16,18,20,22,-1,24,-1,26,28,30,-1,32,34,36,38,-1,40,-1,42,44,46,-1,48,-1,50,52,54,-1,-1,-1,-1,-1,-1,-1,-1,-1,-1,-1,-1,-1,-1,-1,-1,-1,-1,-1],"split_conditions":[-1.6295556E0,-5.824499E-1,1.6580755E0,-6.672248E-2,3.177769E-1,-4.9577323E-1,-2.5250807E0,-4.832469E-1,-6.733849E-2,4.355091E-2,1.1632013E0,2.9611588E-1,1.2675714E-1,-7.022132E-2,1.1131743E0,-6.676519E-2,5.8881273E-3,-5.778021E-1,-4.3227682E-1,-7.063224E-2,7.838473E-1,1.2233754E0,2.255348E-3,-4.6700853E-1,-6.759157E-2,2.6537538E-2,-6.6600025E-2,-3.0822182E-1,1.5455515E0,-4.0648074E-4,-6.7742884E-2,8.547181E-2,-8.76403E-2,2.8527126E-1,1.2470531E0,-8.1570424E-2,-6.7274295E-2,6.476424E-2,3.9175637E-2,-6.912635E-2,5.688385E-2,-1.9490948E-2,-6.7287736E-2,-6.642091E-2,-4.5654323E-2,4.9440317E-2,-6.842246E-2,6.847907E-2,-7.0979916E-2,-6.6545926E-2,-7.103954E-2,6.818581E-2,-6.711724E-2,5.8526225E-2,-7.072603E-2],"split_indices":[14,4,4,0,12,20,12,11,0,4,19,30,28,0,10,0,8,10,24,0,5,12,8,12,0,27,0,13,13,27,0,8,0,30,12,13,0,0,0,0,0,0,0,0,0,0,0,0,0,0,0,0,0,0,0],"split_type":[0,0,0,0,0,0,0,0,0,0,0,0,0,0,0,0,0,0,0,0,0,0,0,0,0,0,0,0,0,0,0,0,0,0,0,0,0,0,0,0,0,0,0,0,0,0,0,0,0,0,0,0,0,0,0],"sum_hessian":[6.695185E4,2.993329E4,3.7018562E4,3.0098126E2,2.9632309E4,3.1915848E4,5.1027163E3,2.9451643E4,1.8066513E2,2.5005063E3,2.9415342E4,1.4904562E3,3.6122603E3,1.0453155E2,2.9347111E4,1.0887408E3,1.4117654E3,2.7193416E4,2.2219243E3,1.52545E2,1.3379111E3,2.2300564E3,1.3822039E3,2.9275895E4,7.121655E1,1.11181E3,2.9995532E2,6.859151E3,2.0334266E4,1.0572083E3,1.1647161E3,1.3152935E3,2.261767E1,1.9851492E3,2.4490723E2,1.0578582E3,3.2434564E2,2.8060568E4,1.215326E3,1.1170265E2,1.0001074E3,3.0027632E3,3.8563877E3,1.9087219E4,1.2470479E3,7.6625104E2,2.909572E2,1.296282E3,1.9011448E1,1.1155784E3,8.695708E2,1.261848E2,1.1872243E2,9.1644446E2,1.4141373E2],"tree_param":{"num_deleted":"0","num_feature":"31","num_nodes":"55","size_leaf_vector":"1"}},{"base_weights":[9.585234E-3,1.1937991E0,-9.0142334E-1,-6.56334E-2,1.219971E0,-1.1619544E0,-4.165656E-1,1.2666425E0,3.1078047E-1,-1.1886861E0,4.9234927E-1,3.8101542E-1,-8.234741E-1,-6.86934E-2,1.271052E0,-9.2996156E-1,1.176465E0,-2.5505346E-1,-1.2339077E0,-7.201522E-2,1.3806732E0,6.52102E-1,-6.7613244E-2,-1.0742512E0,-1.440149E-1,1.2746116E0,-6.596994E-2,-1.4597951E0,9.1707236E-1,-7.07499E-2,1.2781249E0,6.9782746E-1,-6.573032E-2,-1.2524842E0,-1.5904718E-3,1.6443987E0,-7.112269E-2,-2.9214856E-1,9.956157E-1,-1.1520296E0,1.0840157E0,6.040646E-1,-6.6028886E-2,6.382304E-2,-6.965925E-2,-1.0949951E-1,-7.080852E-2,-7.219795E-2,6.855803E-2,6.535894E-2,-8.000304E-2,-6.73952E-2,6.365327E-2,-3.9255425E-2,-6.4417414E-2,-6.65903E-2,9.5367976E-2,8.3958656E-2,-5.461612E-2,7.160773E-2,-4.4815674E-2,5.7516932E-2,-7.059209E-2,2.8372693E-3,-6.278024E-2,-6.5716386E-2,1.7756294E-1,5.1323544E-2,-6.9269076E-2],"categories":[],"categories_nodes":[],"categories_segments":[],"categories_sizes":[],"default_left":[0,0,0,0,0,0,0,0,0,0,0,0,0,0,0,0,0,0,0,0,0,0,0,0,0,0,0,0,0,0,0,0,0,0,0,0,0,0,0,0,0,0,0,0,0,0,0,0,0,0,0,0,0,0,0,0,0,0,0,0,0,0,0,0,0,0,0,0,0],"id":16,"left_children":[1,3,5,-1,7,9,11,13,15,17,19,21,23,-1,25,27,29,31,33,-1,35,37,-1,39,41,43,-1,45,47,-1,49,51,-1,53,55,57,-1,59,61,63,65,67,-1,-1,-1,-1,-1,-1,-1,-1,-1,-1,-1,-1,-1,-1,-1,-1,-1,-1,-1,-1,-1,-1,-1,-1,-1,-1,-1],"loss_changes":[6.9784445E4,1.8465898E3,4.617789E3,0E0,1.18075E3,1.0522305E3,4.1480137E3,3.1001953E2,1.4623181E3,9.8776953E2,6.524398E2,2.029849E3,1.4418774E3,0E0,2.4541406E2,5.490314E2,2.1303333E2,1.0937815E3,5.1098438E2,0E0,1.9460037E2,1.2117245E3,0E0,1.0388896E3,2.0098951E3,1.3199219E2,0E0,1.0764526E1,1.3639001E2,0E0,6.665039E1,6.7314417E2,0E0,3.6758594E2,8.468336E2,2.4500732E1,0E0,1.0399642E3,1.0217842E3,7.471113E2,1.280002E3,1.1746417E3,0E0,0E0,0E0,0E0,0E0,0E0,0E0,0E0,0E0,0E0,0E0,0E0,0E0,0E0,0E0,0E0,0E0,0E0,0E0,0E0,0E0,0E0,0E0,0E0,0E0,0E0,0E0],"parents":[2147483647,0,0,1,1,2,2,4,4,5,5,6,6,7,7,8,8,9,9,10,10,11,11,12,12,14,14,15,15,16,16,17,17,18,18,20,20,21,21,23,23,24,24,25,25,27,27,28,28,30,30,31,31,33,33,34,34,35,35,37,37,38,38,39,39,40,40,41,41],"right_children":[2,4,6,-1,8,10,12,14,16,18,20,22,24,-1,26,28,30,32,34,-1,36,38,-1,40,42,44,-1,46,48,-1,50,52,-1,54,56,58,-1,60,62,64,66,68,-1,-1,-1,-1,-1,-1,-1,-1,-1,-1,-1,-1,-1,-1,-1,-1,-1,-1,-1,-1,-1,-1,-1,-1,-1,-1,-1],"split_conditions":[-1.6295556E0,-5.824499E-1,7.554212E-1,-6.56334E-2,-4.6700853E-1,2.9337273E0,-5.526647E-1,-4.832469E-1,1.8916794E0,-6.2521744E-1,6.753341E-1,1.2699834E0,5.565142E-1,-6.86934E-2,1.1131743E0,5.444543E-1,2.8507173E-1,-2.635987E-1,1.1985197E0,-7.201522E-2,7.562345E-1,2.8560346E-1,-6.7613244E-2,1.5455515E0,1.6424915E-1,1.9562675E0,-6.596994E-2,-1.7797948E0,1.4933058E0,-7.07499E-2,1.1444539E0,-4.7725138E-1,-6.573032E-2,-1.5058472E0,1.3597536E0,-9.0647495E-1,-7.112269E-2,-8.923226E-1,3.9834145E-2,-6.940402E-1,1.291765E0,-8.1570424E-2,-6.6028886E-2,6.382304E-2,-6.965925E-2,-1.0949951E-1,-7.080852E-2,-7.219795E-2,6.855803E-2,6.535894E-2,-8.000304E-2,-6.73952E-2,6.365327E-2,-3.9255425E-2,-6.4417414E-2,-6.65903E-2,9.5367976E-2,8.3958656E-2,-5.461612E-2,7.160773E-2,-4.4815674E-2,5.7516932E-2,-7.059209E-2,2.8372693E-3,-6.278024E-2,-6.5716386E-2,1.7756294E-1,5.1323544E-2,-6.9269076E-2],"split_indices":[14,4,4,0,12,7,12,11,4,21,19,3,17,0,10,30,1,14,26,0,6,30,0,13,8,1,0,10,1,0,1,4,0,13,12,16,0,14,8,8,1,13,0,0,0,0,0,0,0,0,0,0,0,0,0,0,0,0,0,0,0,0,0,0,0,0,0,0,0],"split_type":[0,0,0,0,0,0,0,0,0,0,0,0,0,0,0,0,0,0,0,0,0,0,0,0,0,0,0,0,0,0,0,0,0,0,0,0,0,0,0,0,0,0,0,0,0,0,0,0,0,0,0,0,0,0,0,0,0,0,0,0,0,0,0,0,0,0,0,0,0],"sum_hessian":[6.4683367E4,2.8124373E4,3.6558996E4,2.901237E2,2.783425E4,2.377985E4,1.2779145E4,2.6474822E4,1.3594282E3,2.340198E4,3.7786926E2,4.3171553E3,8.461989E3,4.3620045E1,2.6431201E4,5.586579E2,8.007704E2,1.0814426E3,2.2320537E4,1.1879511E2,2.5907416E2,3.7338083E3,5.833471E2,6.1803457E3,2.281644E3,2.639544E4,3.5762886E1,4.3428894E2,1.2436892E2,2.9739786E1,7.710306E2,5.695628E2,5.1187988E2,2.1989049E4,3.3148868E2,2.3717361E2,2.1900537E1,9.9604083E2,2.7377676E3,5.965819E3,2.1452654E2,1.3951008E3,8.865432E2,2.6377678E4,1.7761238E1,2.170964E1,4.125793E2,1.9709501E1,1.0465942E2,7.638656E2,7.1649737E0,1.2471014E2,4.4485266E2,1.5687098E3,2.042034E4,1.9553568E2,1.3595299E2,2.3457933E2,2.5942838E0,2.58086E2,7.3795483E2,2.5729321E3,1.6483546E2,4.7087866E2,5.4949404E3,1.0901913E2,1.0550741E2,1.1511653E3,2.4393552E2],"tree_param":{"num_deleted":"0","num_feature":"31","num_nodes":"69","size_leaf_vector":"1"}},{"base_weights":[1.6534142E-2,1.1993757E0,-8.457635E-1,1.2361748E0,-7.147842E-1,1.1074405E0,-8.908938E-1,1.2500712E0,-6.638481E-2,-6.6596754E-2,1.08798E0,1.2795597E0,-6.420996E-2,-1.0802535E0,-3.6566016E-1,-6.9430694E-2,1.2557751E0,-6.4738266E-2,7.203254E-2,1.3138685E0,-5.925368E-2,-9.602249E-2,-1.128641E0,-1.0082697E0,2.3572415E-1,1.2704027E0,1.0761288E0,1.3215481E0,-6.487842E-2,-6.596538E-2,5.5865085E-1,-1.1581062E0,5.6275856E-1,-1.1539462E0,4.4941074E-1,5.197123E-1,-9.789311E-1,9.203743E-2,6.336248E-2,5.7882726E-2,-7.829588E-2,6.329705E-2,6.968814E-2,4.7483023E-2,-6.9277264E-2,1.9600116E-2,-5.944983E-2,-6.535508E-2,7.617901E-2,-6.579258E-2,-4.7627133E-3,-6.574517E-2,7.268715E-2,-4.4243447E-2,3.701664E-2,6.831685E-2,-6.684086E-2],"categories":[],"categories_nodes":[],"categories_segments":[],"categories_sizes":[],"default_left":[0,0,0,0,0,0,0,0,0,0,0,0,0,0,0,0,0,0,0,0,0,0,0,0,0,0,0,0,0,0,0,0,0,0,0,0,0,0,0,0,0,0,0,0,0,0,0,0,0,0,0,0,0,0,0,0,0],"id":17,"left_children":[1,3,5,7,9,11,13,15,-1,-1,17,19,-1,21,23,-1,25,-1,-1,27,-1,29,31,33,35,37,39,41,-1,-1,43,45,47,49,51,53,55,-1,-1,-1,-1,-1,-1,-1,-1,-1,-1,-1,-1,-1,-1,-1,-1,-1,-1,-1,-1],"loss_changes":[6.4495723E4,1.8788906E3,3.2247773E3,9.3364844E2,5.616544E2,3.4182452E2,3.5549102E3,3.9333203E2,0E0,0E0,1.1023628E2,6.67865E1,0E0,1.251166E3,3.6615283E3,0E0,6.6859375E1,0E0,0E0,1.6982422E1,0E0,9.875929E2,1.248709E3,9.731279E2,1.6889624E3,4.083203E1,4.2428125E2,1.2857666E0,0E0,0E0,6.120475E2,1.1790742E3,7.735593E2,7.136782E2,7.405801E2,1.2302292E3,7.806469E2,0E0,0E0,0E0,0E0,0E0,0E0,0E0,0E0,0E0,0E0,0E0,0E0,0E0,0E0,0E0,0E0,0E0,0E0,0E0,0E0],"parents":[2147483647,0,0,1,1,2,2,3,3,4,4,5,5,6,6,7,7,10,10,11,11,13,13,14,14,16,16,19,19,21,21,22,22,23,23,24,24,25,25,26,26,27,27,30,30,31,31,32,32,33,33,34,34,35,35,36,36],"right_children":[2,4,6,8,10,12,14,16,-1,-1,18,20,-1,22,24,-1,26,-1,-1,28,-1,30,32,34,36,38,40,42,-1,-1,44,46,48,50,52,54,56,-1,-1,-1,-1,-1,-1,-1,-1,-1,-1,-1,-1,-1,-1,-1,-1,-1,-1,-1,-1],"split_conditions":[-1.6822568E0,3.177769E-1,-1.6304436E0,1.3000802E0,2.26711E0,-8.4349626E-1,5.3442705E-1,-6.541761E-1,-6.638481E-2,-6.6596754E-2,9.443538E-3,2.0447636E0,-6.420996E-2,-6.9807756E-1,1.7207222E-1,-6.9430694E-2,-4.9621555E-1,-6.4738266E-2,7.203254E-2,5.026481E-1,-5.925368E-2,5.004821E-1,1.1985197E0,1.5001682E0,2.5007227E-1,-6.4201343E-1,1.7469019E-1,-3.3368948E0,-6.487842E-2,-6.596538E-2,2.9134753E-1,-1.4524986E0,1.2186083E0,8.3446586E-1,2.7127823E-1,-8.826638E-1,-2.4999175E0,9.203743E-2,6.336248E-2,5.7882726E-2,-7.829588E-2,6.329705E-2,6.968814E-2,4.7483023E-2,-6.9277264E-2,1.9600116E-2,-5.944983E-2,-6.535508E-2,7.617901E-2,-6.579258E-2,-4.7627133E-3,-6.574517E-2,7.268715E-2,-4.4243447E-2,3.701664E-2,6.831685E-2,-6.684086E-2],"split_indices":[10,12,17,9,17,12,17,11,0,0,9,10,0,20,5,0,16,0,0,22,0,7,26,16,8,11,6,12,0,0,6,10,19,18,20,10,15,0,0,0,0,0,0,0,0,0,0,0,0,0,0,0,0,0,0,0,0],"split_type":[0,0,0,0,0,0,0,0,0,0,0,0,0,0,0,0,0,0,0,0,0,0,0,0,0,0,0,0,0,0,0,0,0,0,0,0,0,0,0,0,0,0,0,0,0,0,0,0,0,0,0,0,0,0,0,0,0],"sum_hessian":[6.323149E4,2.6660299E4,3.6571188E4,2.615778E4,5.025203E2,8.2539056E2,3.5745797E4,2.6017277E4,1.4050253E2,3.7455713E2,1.2796317E2,7.704113E2,5.497924E1,2.6272764E4,9.473034E3,5.559581E1,2.5961682E4,1.615359E1,1.11809586E2,7.602946E2,1.0116733E1,1.2312571E3,2.5041508E4,4.579224E3,4.8938096E3,2.4001312E4,1.9603679E3,7.585578E2,1.7367904E0,4.2887347E2,8.023836E2,2.4613047E4,4.284595E2,4.1633584E3,4.1586584E2,3.9669119E3,9.2689764E2,1.2875328E2,2.3872559E4,1.9022324E3,5.8135395E1,4.3902667E2,3.1953113E2,6.6845746E2,1.3392618E2,4.806738E2,2.4132373E4,1.4531018E2,2.831493E2,3.6109016E3,5.524569E2,1.5074405E2,2.651218E2,5.380979E2,3.428814E3,1.22344215E2,8.0455347E2],"tree_param":{"num_deleted":"0","num_feature":"31","num_nodes":"57","size_leaf_vector":"1"}},{"base_weights":[1.0523344E-2,1.158375E0,-8.7188566E-1,-6.392988E-2,1.183825E0,-1.0210285E0,-1.3858529E-2,1.199646E0,-6.445545E-2,-3.176394E-1,-1.0818226E0,6.406982E-1,-6.7286867E-1,-6.711876E-2,1.2090087E0,-6.404705E-2,3.8555282E-1,-4.1744125E-1,-1.1438577E0,-3.834055E-1,9.770593E-1,-1.086892E0,1.18948326E-1,1.2343017E0,6.780951E-1,8.081471E-1,-6.38068E-2,3.7080443E-1,-6.663133E-2,-1.2133089E0,-4.593273E-1,8.7258774E-1,-6.525221E-2,1.1340588E0,-6.957292E-2,-6.469146E-2,1.871827E-1,-6.561061E-2,7.157747E-1,-7.9612024E-2,6.181234E-2,5.1333852E-2,-7.520772E-2,-6.6320844E-2,5.244149E-2,-6.792902E-2,4.6564247E-2,-6.1487354E-2,2.0178335E-2,4.9654737E-2,-4.2009626E-2,-6.800765E-2,6.300952E-2,6.023387E-2,-7.6226786E-2,7.104822E-2,-6.423405E-2,-6.628862E-2,5.6447156E-2],"categories":[],"categories_nodes":[],"categories_segments":[],"categories_sizes":[],"default_left":[0,0,0,0,0,0,0,0,0,0,0,0,0,0,0,0,0,0,0,0,0,0,0,0,0,0,0,0,0,0,0,0,0,0,0,0,0,0,0,0,0,0,0,0,0,0,0,0,0,0,0,0,0,0,0,0,0,0,0],"id":18,"left_children":[1,3,5,-1,7,9,11,13,-1,15,17,19,21,-1,23,-1,25,27,29,31,33,35,37,39,41,43,-1,45,-1,47,49,51,-1,53,-1,-1,55,-1,57,-1,-1,-1,-1,-1,-1,-1,-1,-1,-1,-1,-1,-1,-1,-1,-1,-1,-1,-1,-1],"loss_changes":[6.171398E4,1.6439297E3,4.4082266E3,0E0,1.0269375E3,1.2545781E3,2.2012642E3,6.214375E2,0E0,1.5829214E3,1.1128066E3,8.8228467E2,8.337638E2,0E0,3.4759375E2,0E0,9.4981335E2,1.6657097E3,1.1739277E3,7.3469507E2,7.1833093E2,4.4051343E2,7.474664E2,1.3813672E2,9.008013E2,5.5510706E2,0E0,1.2041119E3,0E0,5.9659766E2,1.2605234E3,2.3433893E2,0E0,3.4132422E2,0E0,0E0,4.2712598E2,0E0,5.2230066E2,0E0,0E0,0E0,0E0,0E0,0E0,0E0,0E0,0E0,0E0,0E0,0E0,0E0,0E0,0E0,0E0,0E0,0E0,0E0,0E0],"parents":[2147483647,0,0,1,1,2,2,4,4,5,5,6,6,7,7,9,9,10,10,11,11,12,12,14,14,16,16,17,17,18,18,19,19,20,20,21,21,22,22,23,23,24,24,25,25,27,27,29,29,30,30,31,31,33,33,36,36,38,38],"right_children":[2,4,6,-1,8,10,12,14,-1,16,18,20,22,-1,24,-1,26,28,30,32,34,36,38,40,42,44,-1,46,-1,48,50,52,-1,54,-1,-1,56,-1,58,-1,-1,-1,-1,-1,-1,-1,-1,-1,-1,-1,-1,-1,-1,-1,-1,-1,-1,-1,-1],"split_conditions":[-1.6295556E0,-5.824499E-1,1.6580755E0,-6.392988E-2,3.177769E-1,-4.9577323E-1,-6.6592616E-1,-4.832469E-1,-6.445545E-2,4.355091E-2,-9.6828556E-1,2.8560346E-1,1.2675714E-1,-6.711876E-2,-4.6700853E-1,-6.404705E-2,5.8881273E-3,-2.5621864E-1,6.096598E-1,-3.6679828E-1,8.547181E-2,1.2233754E0,2.993772E-1,-1.2689805E0,4.0050668E-1,2.6537538E-2,-6.38068E-2,2.765161E-1,-6.663133E-2,1.7207307E0,-1.5058472E0,6.6282827E-1,-6.525221E-2,1.5964258E0,-6.957292E-2,-6.469146E-2,1.2470531E0,-6.561061E-2,-8.923444E-1,-7.9612024E-2,6.181234E-2,5.1333852E-2,-7.520772E-2,-6.6320844E-2,5.244149E-2,-6.792902E-2,4.6564247E-2,-6.1487354E-2,2.0178335E-2,4.9654737E-2,-4.2009626E-2,-6.800765E-2,6.300952E-2,6.023387E-2,-7.6226786E-2,7.104822E-2,-6.423405E-2,-6.628862E-2,5.6447156E-2],"split_indices":[14,4,4,0,12,20,12,11,0,4,14,30,28,0,12,0,8,13,20,20,8,12,17,24,15,27,0,16,0,29,13,11,0,14,0,0,12,0,1,0,0,0,0,0,0,0,0,0,0,0,0,0,0,0,0,0,0,0,0],"split_type":[0,0,0,0,0,0,0,0,0,0,0,0,0,0,0,0,0,0,0,0,0,0,0,0,0,0,0,0,0,0,0,0,0,0,0,0,0,0,0,0,0,0,0,0,0,0,0,0,0,0,0,0,0,0,0,0,0,0,0],"sum_hessian":[6.0927535E4,2.6480703E4,3.4446832E4,2.7317795E2,2.6207525E4,2.9345748E4,5.1010854E3,2.6041436E4,1.660894E2,2.3350786E3,2.701067E4,2.5592039E3,2.5418816E3,9.504008E1,2.5946395E4,9.849609E2,1.3501177E3,2.3073398E3,2.470333E4,6.327026E2,1.9265012E3,1.668886E3,8.7299554E2,2.476524E4,1.1811552E3,1.076787E3,2.7333063E2,1.2399609E3,1.0673788E3,2.2427139E4,2.27619E3,2.678011E2,3.649015E2,1.8072285E3,1.19272675E2,1.4356843E3,2.3320169E2,2.5656546E2,6.164301E2,1.646897E1,2.4748771E4,1.0189264E3,1.6222882E2,1.0865325E2,9.681337E2,3.0315137E2,9.3680963E2,2.2201664E4,2.2547577E2,4.7254416E2,1.8036456E3,3.924214E1,2.2855893E2,1.760999E3,4.622944E1,1.2687989E2,1.0632179E2,1.03383385E2,5.130467E2],"tree_param":{"num_deleted":"0","num_feature":"31","num_nodes":"59","size_leaf_vector":"1"}},{"base_weights":[1.0333731E-2,1.1631907E0,-8.5447335E-1,1.2307566E0,3.4748536E-1,-1.0680015E0,-4.4499764E-1,-7.631903E-2,1.2316622E0,-5.6740695E-1,1.1537875E0,-1.0931256E0,4.4787773E-1,2.9885185E-1,-8.7457216E-1,1.2325501E0,-7.732688E-2,1.2232463E0,-1.0002768E0,-7.965893E-2,1.2099826E0,-7.6917326E-1,-1.2036374E0,1.2711493E0,-6.944257E-2,1.0353568E0,-2.0505217E-1,-4.1853294E-1,-6.312167E-2,-5.815171E-2,1.2332858E0,6.3124344E-2,-4.834709E-2,-1.3784616E0,8.4801877E-1,1.2370547E0,-7.291065E-2,3.3192423E-1,-9.5139426E-1,-1.228808E0,6.4075816E-1,-6.582087E-2,1.5032021E0,1.1630939E0,-6.615895E-2,-9.36612E-1,8.0249697E-1,-6.395345E-2,8.08697E-2,-7.215052E-2,6.168279E-2,-6.2234323E-2,-7.105696E-2,-6.776093E-2,6.7365125E-2,6.25185E-2,-7.3081E-2,-6.5429784E-2,8.060755E-2,-5.57484E-2,1.4470425E-2,-6.260916E-2,-2.2301923E-2,9.457731E-2,-6.61037E-2,7.787737E-2,-5.749783E-2,6.153815E-2,-7.863222E-2,2.5010929E-2,-6.583401E-2,6.1140735E-2,-6.611714E-2,3.3610813E-2,-3.4487247E-2],"categories":[],"categories_nodes":[],"categories_segments":[],"categories_sizes":[],"default_left":[0,0,0,0,0,0,0,0,0,0,0,0,0,0,0,0,0,0,0,0,0,0,0,0,0,0,0,0,0,0,0,0,0,0,0,0,0,0,0,0,0,0,0,0,0,0,0,0,0,0,0,0,0,0,0,0,0,0,0,0,0,0,0,0,0,0,0,0,0,0,0,0,0,0,0],"id":19,"left_children":[1,3,5,7,9,11,13,-1,15,17,19,21,23,25,27,29,-1,31,33,-1,35,37,39,41,-1,43,45,47,-1,-1,49,-1,-1,51,53,55,-1,57,59,61,63,-1,65,67,-1,69,71,-1,73,-1,-1,-1,-1,-1,-1,-1,-1,-1,-1,-1,-1,-1,-1,-1,-1,-1,-1,-1,-1,-1,-1,-1,-1,-1,-1],"loss_changes":[5.8621336E4,1.388543E3,2.9369766E3,5.998047E1,1.423793E3,8.414336E2,3.6801968E3,0E0,5.930078E1,7.02256E2,1.6027502E2,7.7669336E2,5.471984E2,1.5651621E3,1.290811E3,4.242578E1,0E0,1.639154E1,5.1066705E2,0E0,7.445618E1,1.1094255E3,7.5259375E2,1.5184528E2,0E0,5.176715E2,1.8468234E3,1.4427518E3,0E0,0E0,2.4808594E1,0E0,0E0,1.6878662E0,1.3870187E2,3.762549E1,0E0,1.6521427E3,9.6300146E2,2.9176953E2,5.3939185E2,0E0,3.4884216E1,3.028911E2,0E0,7.933004E2,9.430325E2,0E0,9.6887946E2,0E0,0E0,0E0,0E0,0E0,0E0,0E0,0E0,0E0,0E0,0E0,0E0,0E0,0E0,0E0,0E0,0E0,0E0,0E0,0E0,0E0,0E0,0E0,0E0,0E0,0E0],"parents":[2147483647,0,0,1,1,2,2,3,3,4,4,5,5,6,6,8,8,9,9,10,10,11,11,12,12,13,13,14,14,15,15,17,17,18,18,20,20,21,21,22,22,23,23,25,25,26,26,27,27,30,30,33,33,34,34,35,35,37,37,38,38,39,39,40,40,42,42,43,43,45,45,46,46,48,48],"right_children":[2,4,6,8,10,12,14,-1,16,18,20,22,24,26,28,30,-1,32,34,-1,36,38,40,42,-1,44,46,48,-1,-1,50,-1,-1,52,54,56,-1,58,60,62,64,-1,66,68,-1,70,72,-1,74,-1,-1,-1,-1,-1,-1,-1,-1,-1,-1,-1,-1,-1,-1,-1,-1,-1,-1,-1,-1,-1,-1,-1,-1,-1,-1],"split_conditions":[-1.8787968E0,-1.7797948E0,7.554212E-1,3.373822E-3,2.6779897E0,2.9337273E0,-4.5306566E-1,-7.631903E-2,-1.771138E-1,-2.3469388E0,-3.8618553E-1,-4.2765895E-1,-9.0647495E-1,-3.2445577E-1,5.8881273E-3,-5.824499E-1,-7.732688E-2,-2.2066813E0,7.2961336E-1,-7.965893E-2,1.1594908E0,-4.899398E-1,2.2652838E0,6.495832E-1,-6.944257E-2,1.2223119E0,5.401593E-1,-1.5970768E-1,-6.312167E-2,-5.815171E-2,-1.6434549E0,6.3124344E-2,-4.834709E-2,-5.5848455E-1,1.4933058E0,7.797333E-1,-7.291065E-2,-5.322211E-1,1.3711901E0,7.710452E-1,-1.3661563E0,-6.582087E-2,7.562345E-1,1.2456584E0,-6.615895E-2,-1.5972286E0,7.994393E-3,-6.395345E-2,2.3206711E-1,-7.215052E-2,6.168279E-2,-6.2234323E-2,-7.105696E-2,-6.776093E-2,6.7365125E-2,6.25185E-2,-7.3081E-2,-6.5429784E-2,8.060755E-2,-5.57484E-2,1.4470425E-2,-6.260916E-2,-2.2301923E-2,9.457731E-2,-6.61037E-2,7.787737E-2,-5.749783E-2,6.153815E-2,-7.863222E-2,2.5010929E-2,-6.583401E-2,6.1140735E-2,-6.611714E-2,3.3610813E-2,-3.4487247E-2],"split_indices":[14,10,4,30,4,7,12,0,3,7,24,14,16,14,8,4,0,12,29,0,7,26,19,19,0,3,22,18,0,0,24,0,0,4,1,6,0,26,16,23,24,0,6,1,0,19,27,0,7,0,0,0,0,0,0,0,0,0,0,0,0,0,0,0,0,0,0,0,0,0,0,0,0,0,0],"split_type":[0,0,0,0,0,0,0,0,0,0,0,0,0,0,0,0,0,0,0,0,0,0,0,0,0,0,0,0,0,0,0,0,0,0,0,0,0,0,0,0,0,0,0,0,0,0,0,0,0,0,0,0,0,0,0,0,0,0,0,0,0,0,0,0,0,0,0,0,0,0,0,0,0,0,0],"sum_hessian":[5.8795797E4,2.5200787E4,3.3595008E4,2.3272578E4,1.9282092E3,2.2079611E4,1.1515397E4,7.087325E0,2.3265492E4,9.03418E2,1.0247911E3,2.1719904E4,3.5970584E2,4.215741E3,7.299656E3,2.3258613E4,6.877631E0,1.7551967E2,7.278984E2,1.999575E1,1.0047954E3,5.5267744E3,1.6193131E4,2.4858932E2,1.11116516E2,1.7121752E3,2.503566E3,3.3559167E3,3.9437393E3,6.654786E0,2.3251959E4,1.7284644E2,2.6732266E0,6.044702E2,1.2342812E2,9.952339E2,9.56149E0,7.8464124E2,4.7421333E3,1.5975445E4,2.1768513E2,2.0074152E1,2.2851517E2,1.6246897E3,8.748555E1,1.4504764E3,1.0530895E3,1.2318011E3,2.1241157E3,2.6752043E0,2.3249283E4,1.5349538E2,4.5097485E2,2.248631E1,1.0094182E2,9.908816E2,4.352291E0,3.439156E2,4.4072565E2,4.1898867E3,5.522465E2,1.5511636E4,4.6380957E2,1.3298108E2,8.470406E1,2.2433304E2,4.1821275E0,1.5860095E3,3.8680157E1,3.0335196E2,1.1471245E3,8.795324E2,1.735571E2,1.2019235E3,9.2219226E2],"tree_param":{"num_deleted":"0","num_feature":"31","num_nodes":"75","size_leaf_vector":"1"}},{"base_weights":[1.4736978E-2,1.1287328E0,-8.5038984E-1,1.2181592E0,4.2273226E-1,-9.9072266E-1,-1.6872425E-2,1.2193916E0,-8.5693575E-2,-1.3649055E0,8.62396E-1,-3.745949E-1,-1.0809656E0,6.284896E-1,-7.2593224E-1,1.2206767E0,-5.9889533E-2,-2.135196E0,-6.529091E-2,-7.057782E-2,9.7714245E-1,-6.439686E-2,3.960006E-2,-1.1530523E0,-4.064312E-1,-3.6697394E-1,9.477945E-1,-1.1078483E0,3.3415467E-1,-7.2335064E-2,1.2214676E0,-5.923891E-2,-2.4375381E0,1.0301358E0,-1.5116404E0,-6.569025E-2,4.198639E-1,-1.1791189E0,-3.1110457E-1,6.305196E-1,-8.8090914E-1,-6.4241536E-2,4.6685627E-1,1.0962765E0,-6.7759536E-2,-1.2689261E0,8.4280455E-1,-6.340186E-2,9.9363846E-1,-6.556328E-2,6.1088033E-2,-6.249688E-2,-1.3208668E-1,5.3723443E-2,-6.19062E-2,-1.2239114E-1,-6.737103E-2,-3.8116083E-2,4.8091818E-2,-7.089109E-3,-5.987906E-2,4.8463665E-2,-6.3068084E-2,5.717987E-2,-6.4414844E-2,-5.6846645E-2,8.526858E-2,6.4154975E-2,-6.420385E-2,5.8307517E-2,-7.3558606E-2,-6.566502E-2,-6.2160987E-2,-6.291843E-2,6.617295E-2,6.576873E-2,-6.2438477E-2],"categories":[],"categories_nodes":[],"categories_segments":[],"categories_sizes":[],"default_left":[0,0,0,0,0,0,0,0,0,0,0,0,0,0,0,0,0,0,0,0,0,0,0,0,0,0,0,0,0,0,0,0,0,0,0,0,0,0,0,0,0,0,0,0,0,0,0,0,0,0,0,0,0,0,0,0,0,0,0,0,0,0,0,0,0,0,0,0,0,0,0,0,0,0,0,0,0],"id":20,"left_children":[1,3,5,7,9,11,13,15,-1,17,19,21,23,25,27,29,-1,31,-1,-1,33,-1,35,37,39,41,43,45,47,-1,49,-1,51,53,55,-1,57,59,61,63,65,-1,67,69,-1,71,73,-1,75,-1,-1,-1,-1,-1,-1,-1,-1,-1,-1,-1,-1,-1,-1,-1,-1,-1,-1,-1,-1,-1,-1,-1,-1,-1,-1,-1,-1],"loss_changes":[5.5133855E4,1.5783047E3,3.766502E3,8.228906E1,2.2120537E3,1.5319941E3,2.1242612E3,7.037891E1,0E0,2.250232E1,5.9063416E2,1.3326396E3,1.1684277E3,7.728221E2,8.9589636E2,4.8546875E1,0E0,8.034958E0,0E0,0E0,2.8517285E2,0E0,1.2483121E3,4.7626172E2,1.1432615E3,4.5286395E2,6.307888E2,5.120707E2,6.210697E2,0E0,1.8054688E1,0E0,3.4620667E0,2.13125E2,3.656807E0,0E0,1.2138898E3,4.032539E2,7.963735E2,7.1985004E2,1.057298E3,0E0,4.452304E2,3.1196802E2,0E0,8.129883E-2,1.2755703E2,0E0,3.0185187E2,0E0,0E0,0E0,0E0,0E0,0E0,0E0,0E0,0E0,0E0,0E0,0E0,0E0,0E0,0E0,0E0,0E0,0E0,0E0,0E0,0E0,0E0,0E0,0E0,0E0,0E0,0E0,0E0],"parents":[2147483647,0,0,1,1,2,2,3,3,4,4,5,5,6,6,7,7,9,9,10,10,11,11,12,12,13,13,14,14,15,15,17,17,20,20,22,22,23,23,24,24,25,25,26,26,27,27,28,28,30,30,32,32,33,33,34,34,36,36,37,37,38,38,39,39,40,40,42,42,43,43,45,45,46,46,48,48],"right_children":[2,4,6,8,10,12,14,16,-1,18,20,22,24,26,28,30,-1,32,-1,-1,34,-1,36,38,40,42,44,46,48,-1,50,-1,52,54,56,-1,58,60,62,64,66,-1,68,70,-1,72,74,-1,76,-1,-1,-1,-1,-1,-1,-1,-1,-1,-1,-1,-1,-1,-1,-1,-1,-1,-1,-1,-1,-1,-1,-1,-1,-1,-1,-1,-1],"split_conditions":[-1.6295556E0,-1.9062351E0,1.6978945E0,-1.8787968E0,7.6993793E-1,-8.030017E-1,-6.6592616E-1,1.1131743E0,-8.5693575E-2,-1.7797948E0,2.7954635E-1,1.1917981E-1,7.803142E-1,2.8560346E-1,9.2507714E-1,3.373822E-3,-5.9889533E-2,-5.4724497E-1,-6.529091E-2,-7.057782E-2,7.488469E-1,-6.439686E-2,-5.9465003E-1,1.4089365E0,-4.899398E-1,6.6282827E-1,8.547181E-2,1.6235279E0,3.748176E-1,-7.2335064E-2,4.5152195E-2,-5.923891E-2,-3.2723936E-1,3.177769E-1,-1.7797948E0,-6.569025E-2,-4.3873705E-2,-2.1474755E0,1.4678857E0,3.0262575E-2,2.0555143E0,-6.4241536E-2,7.703791E-1,1.5964258E0,-6.7759536E-2,-1.2787975E-3,1.5316197E0,-6.340186E-2,-1.5713383E-1,-6.556328E-2,6.1088033E-2,-6.249688E-2,-1.3208668E-1,5.3723443E-2,-6.19062E-2,-1.2239114E-1,-6.737103E-2,-3.8116083E-2,4.8091818E-2,-7.089109E-3,-5.987906E-2,4.8463665E-2,-6.3068084E-2,5.717987E-2,-6.4414844E-2,-5.6846645E-2,8.526858E-2,6.4154975E-2,-6.420385E-2,5.8307517E-2,-7.3558606E-2,-6.566502E-2,-6.2160987E-2,-6.291843E-2,6.617295E-2,6.576873E-2,-6.2438477E-2],"split_indices":[14,12,4,14,4,14,12,10,0,10,30,16,29,30,12,30,0,4,0,0,13,0,4,17,26,11,8,17,25,0,11,0,11,12,10,0,8,16,17,12,15,0,11,14,0,8,7,0,21,0,0,0,0,0,0,0,0,0,0,0,0,0,0,0,0,0,0,0,0,0,0,0,0,0,0,0,0],"split_type":[0,0,0,0,0,0,0,0,0,0,0,0,0,0,0,0,0,0,0,0,0,0,0,0,0,0,0,0,0,0,0,0,0,0,0,0,0,0,0,0,0,0,0,0,0,0,0,0,0,0,0,0,0,0,0,0,0,0,0,0,0,0,0,0,0,0,0,0,0,0,0,0,0,0,0,0,0],"sum_hessian":[5.7205777E4,2.5006025E4,3.2199754E4,2.219406E4,2.811965E3,2.7559574E4,4.640179E3,2.218532E4,8.740561E0,5.546595E2,2.2573057E3,3.5215552E3,2.403802E4,2.4292617E3,2.2109175E3,2.2174025E4,1.1294074E1,3.7012352E1,5.1764716E2,1.07891754E2,2.1494138E3,1.0980759E3,2.4234792E3,2.1716494E4,2.3215244E3,5.8993475E2,1.839327E3,1.6253204E3,5.855969E2,6.0307612E0,2.2167994E4,1.0119668E1,2.6892683E1,2.1051748E3,4.423913E1,5.3102875E2,1.8924504E3,2.1063957E4,6.525372E2,7.2868536E2,1.5928389E3,2.8056064E2,3.093741E2,1.7284138E3,1.1091328E2,1.5016677E3,1.2365281E2,1.7048558E2,4.151113E2,2.0473838E0,2.2165947E4,4.990314E0,2.1902369E1,2.0653342E3,3.9840576E1,4.5268364E0,3.971229E1,5.947457E2,1.2977047E3,3.6848648E2,2.069547E4,2.7797424E2,3.7456293E2,5.752671E2,1.5341829E2,1.4498721E3,1.429668E2,2.1118971E2,9.818441E1,1.6831521E3,4.5261654E1,5.324563E2,9.692114E2,2.2719007E1,1.009338E2,3.6338672E2,5.1724586E1],"tree_param":{"num_deleted":"0","num_feature":"31","num_nodes":"77","size_leaf_vector":"1"}},{"base_weights":[-1.2573801E-2,1.1449654E0,-7.702446E-1,-6.315223E-2,1.184631E0,-9.443974E-1,3.1780687E-1,1.1892259E0,-6.7746304E-2,-7.346978E-1,-1.1335999E0,9.0759397E-1,-2.6701546E-1,-7.103556E-2,1.1927396E0,-2.0196979E-1,-9.6419305E-1,-1.1687077E0,1.4354995E-1,9.583947E-1,-6.349175E-2,5.7646316E-1,-8.417648E-1,8.684821E-1,1.2050003E0,2.75691E-1,-6.2914096E-2,-1.1497239E0,-3.5675824E-1,-1.6336682E-1,-1.2004329E0,-6.537258E-2,1.273824E0,1.0054023E0,-6.828249E-2,1.082657E0,-5.029318E-1,4.0081805E-1,-1.263347E0,6.02879E-2,-8.369999E-2,-7.094791E-2,6.030334E-2,-4.189326E-2,3.929688E-2,-6.15048E-2,1.629807E-2,2.2602554E-2,-6.286279E-2,-6.46833E-2,1.16404355E-1,-4.0425275E-2,-6.185888E-2,-5.924533E-2,7.225164E-2,5.240203E-2,-7.213536E-2,6.2375784E-2,-6.881035E-2,5.745833E-2,-6.301648E-2,5.9731066E-2,-6.252701E-2,-6.1183214E-2,-6.574776E-2],"categories":[],"categories_nodes":[],"categories_segments":[],"categories_sizes":[],"default_left":[0,0,0,0,0,0,0,0,0,0,0,0,0,0,0,0,0,0,0,0,0,0,0,0,0,0,0,0,0,0,0,0,0,0,0,0,0,0,0,0,0,0,0,0,0,0,0,0,0,0,0,0,0,0,0,0,0,0,0,0,0,0,0,0,0],"id":21,"left_children":[1,3,5,-1,7,9,11,13,-1,15,17,19,21,-1,23,25,27,29,31,33,-1,35,37,39,41,43,-1,45,47,49,51,-1,53,55,-1,57,59,61,63,-1,-1,-1,-1,-1,-1,-1,-1,-1,-1,-1,-1,-1,-1,-1,-1,-1,-1,-1,-1,-1,-1,-1,-1,-1,-1],"loss_changes":[4.7349434E4,2.0415117E3,6.1832773E3,0E0,2.468086E2,1.1151719E3,1.5533801E3,1.9405078E2,0E0,1.6312554E3,6.6309375E2,2.4923242E2,1.0969469E3,0E0,8.223047E1,2.0281903E3,1.0506348E3,4.5875E2,6.518428E2,2.4080127E2,0E0,5.016761E2,7.0537463E2,6.595402E2,5.8197266E1,1.57362E3,0E0,8.476709E2,1.5908877E3,1.2458912E3,1.9988477E2,0E0,9.573587E1,2.2580322E2,0E0,2.5494446E2,3.6869037E2,4.49317E2,4.489746E-1,0E0,0E0,0E0,0E0,0E0,0E0,0E0,0E0,0E0,0E0,0E0,0E0,0E0,0E0,0E0,0E0,0E0,0E0,0E0,0E0,0E0,0E0,0E0,0E0,0E0,0E0],"parents":[2147483647,0,0,1,1,2,2,4,4,5,5,6,6,7,7,9,9,10,10,11,11,12,12,14,14,15,15,16,16,17,17,18,18,19,19,21,21,22,22,23,23,24,24,25,25,27,27,28,28,29,29,30,30,32,32,33,33,35,35,36,36,37,37,38,38],"right_children":[2,4,6,-1,8,10,12,14,-1,16,18,20,22,-1,24,26,28,30,32,34,-1,36,38,40,42,44,-1,46,48,50,52,-1,54,56,-1,58,60,62,64,-1,-1,-1,-1,-1,-1,-1,-1,-1,-1,-1,-1,-1,-1,-1,-1,-1,-1,-1,-1,-1,-1,-1,-1,-1,-1],"split_conditions":[-1.7797948E0,-5.824499E-1,2.2538888E0,-6.315223E-2,-1.771138E-1,-1.4346915E-1,-2.647834E-1,-5.6763377E0,-6.7746304E-2,-5.502808E-1,1.1549144E0,7.0347E-1,3.3160433E-1,-7.103556E-2,9.341113E-1,2.0880833E-1,5.3442705E-1,-1.4524986E0,-5.2379654E-3,1.5068771E0,-6.349175E-2,-7.941043E-3,-6.833755E-1,-1.6319689E0,3.373822E-3,-2.7136803E-1,-6.2914096E-2,9.978095E-1,5.8881273E-3,8.987995E-1,-8.572379E-1,-6.537258E-2,-3.032914E0,1.9435171E0,-6.828249E-2,2.574192E-1,-1.909488E0,-1.032418E0,2.8527126E-1,6.02879E-2,-8.369999E-2,-7.094791E-2,6.030334E-2,-4.189326E-2,3.929688E-2,-6.15048E-2,1.629807E-2,2.2602554E-2,-6.286279E-2,-6.46833E-2,1.16404355E-1,-4.0425275E-2,-6.185888E-2,-5.924533E-2,7.225164E-2,5.240203E-2,-7.213536E-2,6.2375784E-2,-6.881035E-2,5.745833E-2,-6.301648E-2,5.9731066E-2,-6.252701E-2,-6.1183214E-2,-6.574776E-2],"split_indices":[10,4,4,0,3,13,3,2,0,10,23,8,10,0,4,8,17,10,2,30,0,8,18,16,30,4,0,30,8,22,17,0,1,1,0,24,13,0,30,0,0,0,0,0,0,0,0,0,0,0,0,0,0,0,0,0,0,0,0,0,0,0,0,0,0],"split_type":[0,0,0,0,0,0,0,0,0,0,0,0,0,0,0,0,0,0,0,0,0,0,0,0,0,0,0,0,0,0,0,0,0,0,0,0,0,0,0,0,0,0,0,0,0,0,0,0,0,0,0,0,0,0,0,0,0,0,0,0,0,0,0,0,0],"sum_hessian":[5.3986152E4,2.1357105E4,3.2629047E4,3.456001E2,2.1011506E4,2.8127164E4,4.501884E3,2.0974088E4,3.7417645E1,1.3343258E4,1.4783905E4,2.241153E3,2.260731E3,2.7657001E1,2.0946432E4,4.0180422E3,9.325216E3,1.4388463E4,3.9544244E2,2.1906047E3,5.0548275E1,9.161799E2,1.3445511E3,7.657735E2,2.0180658E4,2.7673809E3,1.2506613E3,7.1427036E3,2.1825122E3,4.4034958E2,1.3948113E4,1.730854E2,2.2235704E2,2.1477307E3,4.287403E1,6.236905E2,2.9248935E2,3.4062704E2,1.0039241E3,6.7655066E2,8.9222855E1,7.660143E0,2.0172998E4,8.6939075E2,1.8979901E3,6.773933E3,3.687707E2,1.1500541E3,1.0324581E3,3.0325327E2,1.370963E2,1.1975714E3,1.2750542E4,1.4089987E1,2.0826706E2,2.1115266E3,